%YAML:1.0
---
opencv_ml_svm:
   format: 3
   svmType: C_SVC
   kernel:
      type: LINEAR
   C: 6.2500000000000000e+01
   term_criteria: { iterations:100 }
   var_count: 32
   class_count: 30
   class_labels: !!opencv-matrix
      rows: 30
      cols: 1
      dt: i
      data: [ 0, 1, 2, 3, 4, 5, 6, 7, 8, 9, 10, 11, 12, 13, 14, 15, 16,
          17, 18, 19, 20, 21, 22, 23, 24, 25, 26, 27, 28, 29 ]
   sv_total: 435
   support_vectors:
      - [ -1.35645285e-01, 4.27594244e-01, 5.19611657e-01,
          1.83421075e-01, -1.09034404e-01, 3.74383390e-01,
          2.82258630e-01, 5.46022356e-01, -4.62796301e-01,
          -3.90171736e-01, -3.86625558e-01, -3.43774170e-01,
          -3.09235632e-01, 1.70501471e-02, -5.15049547e-02,
          -1.61553517e-01, 9.94981766e-01, 1.09363008e+00,
          -1.58336794e+00, -5.05243897e-01, -1.01671159e+00,
          4.28856045e-01, 3.63739729e-01, 2.24115804e-01,
          -3.09441030e-01, -2.33727634e-01, 5.57297885e-01,
          1.53131378e+00, -1.14515352e+00, -9.43458200e-01,
          -1.20155327e-01, 1.20155364e-01 ]
      - [ -7.51632988e-01, 1.22458887e+00, 2.14417362e+00,
          -1.75807559e+00, -3.13083529e-01, 1.38901937e+00,
          -1.13168907e+00, -2.20696464e-01, -5.30871689e-01,
          3.29322934e-01, -6.04100406e-01, 2.57637262e-01,
          -6.72807515e-01, -6.05368197e-01, 1.68563139e+00,
          -4.42048103e-01, 8.59053910e-01, -2.76449293e-01,
          -5.48012495e-01, -3.45922336e-02, -2.26839590e+00,
          2.33756304e+00, 2.09401512e+00, -2.16318274e+00,
          -4.08762515e-01, -3.23324943e+00, 1.54889178e+00,
          -9.66287196e-01, -1.47972465e+00, 8.97120178e-01,
          -1.74471661e-02, 1.74461436e-02 ]
      - [ -1.33555353e+00, 2.91261172e+00, 2.92145610e+00,
          -7.56273568e-01, -1.22359917e-01, 7.78329492e-01,
          4.27490264e-01, 2.00897858e-01, -9.59181786e-01,
          -7.90179968e-01, -7.55704761e-01, 1.64236531e-01,
          -4.71150190e-01, -1.55884460e-01, -1.81269586e+00,
          -2.46038601e-01, 3.74224091e+00, 1.28435755e+00,
          -2.34083009e+00, -2.68576789e+00, -2.88824606e+00,
          2.74487638e+00, 7.80544937e-01, -6.37177348e-01,
          -1.55896747e+00, -1.59011304e+00, 2.23302794e+00,
          2.79357052e+00, -2.37639570e+00, -2.65020275e+00,
          -3.40064913e-01, 3.40056896e-01 ]
      - [ 3.21602821e-01, 1.01683521e+00, -9.92161095e-01,
          -7.29621351e-01, 4.03034955e-01, -4.16881770e-01,
          -4.07008827e-01, 2.48754406e+00, -9.19772923e-01,
          1.72148478e+00, -1.14082074e+00, -1.30146241e+00,
          2.98541397e-01, 5.06335735e-01, -6.30733222e-02,
          -7.84576476e-01, -3.83344680e-01, 2.06668854e+00,
          -1.64057112e+00, -4.27727029e-02, 1.03406027e-01,
          2.82777429e+00, -2.60306501e+00, -3.28115821e-01,
          -2.02067709e+00, 8.83396208e-01, 1.32459092e+00,
          3.58753085e-01, 1.60658920e+00, -3.28993368e+00,
          -2.43226677e-01, 2.43226886e-01 ]
      - [ -2.03609133e+00, -8.93921137e-01, 1.98630834e+00,
          -7.20378637e-01, 3.80877703e-01, -2.53941131e+00,
          1.29333961e+00, 1.27267992e+00, -7.42116988e-01,
          -8.35046053e-01, 1.58131289e+00, 2.71389246e-01,
          -6.45034611e-01, 3.10292053e+00, -1.37663388e+00,
          -1.00194059e-01, -1.66408360e+00, 4.07486528e-01,
          2.75539309e-01, 9.81057227e-01, -3.04236507e+00,
          -1.16545737e+00, 3.48432660e+00, 7.23498106e-01,
          -3.09438372e+00, -9.07119215e-01, -5.08854675e+00,
          3.83194923e+00, 8.80722702e-01, 3.75874192e-01,
          -4.99804676e-01, 4.99799758e-01 ]
      - [ 1.54454336e-01, -9.81773078e-01, -8.57774615e-01,
          -1.00717890e+00, 9.88883615e-01, -6.45070982e+00,
          2.67475343e+00, 3.45706916e+00, -2.44516993e+00,
          -3.29566431e+00, 6.14374018e+00, 8.31638455e-01,
          -1.03305602e+00, 6.98488951e+00, -3.67407537e+00,
          -1.49002731e+00, -2.69227219e+00, 6.69997454e-01,
          1.23454523e+00, 7.87728071e-01, -2.33488822e+00,
          -3.74325800e+00, 4.28664255e+00, 1.79150248e+00,
          -1.64254344e+00, -2.66114450e+00, -6.28914452e+00,
          4.26686907e+00, 2.10997641e-01, 1.81127584e+00,
          -9.27879810e-01, 9.27880228e-01 ]
      - [ -2.34191895e-01, 5.31902790e-01, 7.15227723e-01,
          3.36621925e-02, -5.84531307e-01, 5.92591643e-01,
          1.43795282e-01, -9.59871802e-03, -8.13799918e-01,
          -7.23850191e-01, -6.59604892e-02, 3.83096844e-01,
          -7.34324217e-01, 8.01679343e-02, 4.43760842e-01,
          2.42051378e-01, 1.04660082e+00, 1.42256841e-01,
          -1.22051370e+00, 3.16558406e-02, -2.36684728e+00,
          4.80812073e-01, 1.23682320e+00, 6.49211764e-01, 5.34490466e-01,
          -1.28071690e+00, 3.05771202e-01, 8.83086562e-01,
          -2.19180632e+00, 1.00294864e+00, -5.34237698e-02,
          5.34232035e-02 ]
      - [ -1.56481471e-02, 4.58538198e+00, -1.63112712e+00,
          -9.57021356e-01, 1.51701605e+00, -6.07896757e+00,
          3.27028346e+00, 3.67695236e+00, -2.65266037e+00,
          -5.40337563e+00, 7.24870062e+00, -5.51226616e-01,
          -7.64647722e-02, 4.58320999e+00, -5.02290154e+00,
          -2.49215221e+00, 1.98158538e+00, 2.38528371e+00,
          -1.35856199e+00, -3.00831127e+00, -1.22775781e+00,
          -2.31374931e+00, 3.86495376e+00, -3.23446989e-01,
          -1.33806741e+00, -3.16657758e+00, 7.78229116e-03,
          4.35908747e+00, -3.54929137e+00, -8.17578435e-01,
          -9.63358641e-01, 9.63359058e-01 ]
      - [ 2.30947316e-01, -1.49020803e+00, 6.71231413e+00,
          -1.44286501e+00, 1.05733752e-01, 3.00446892e+00,
          -4.40551376e+00, 2.10025716e+00, -2.02474046e+00,
          4.25036287e+00, -3.63076782e+00, 4.78144199e-01,
          -8.95288169e-01, -1.24073899e+00, -2.36587453e+00,
          6.13767624e-01, 4.01018906e+00, 8.04946840e-01,
          -9.27000880e-01, -3.88813710e+00, -2.58334684e+00,
          4.52388573e+00, -3.68984342e+00, 1.74930429e+00,
          2.18414694e-01, -2.49330354e+00, 1.85094261e+00,
          2.96419311e+00, 8.95948559e-02, -4.90473080e+00,
          -7.81449497e-01, 7.81452060e-01 ]
      - [ 5.65139413e-01, 1.75549328e+00, 6.08583927e-01,
          -2.74065566e+00, -1.30428091e-01, -3.49379927e-01,
          -1.25153697e+00, 3.32532287e+00, -1.82444072e+00,
          2.18236372e-01, 4.64269847e-01, 1.83990562e+00, 5.36157846e-01,
          8.41488779e-01, -9.44617808e-01, -2.91353822e+00,
          1.88560992e-01, 1.59397864e+00, 6.97970688e-01,
          -2.48050928e+00, -8.53571415e-01, 2.46583939e+00,
          -1.12330151e+00, -4.88965750e-01, -2.23350954e+00,
          -3.23779750e+00, 1.84082448e+00, -5.82847632e-02,
          -2.28557482e-01, -1.55398023e+00, -9.18411374e-01,
          9.18411970e-01 ]
      - [ -2.32293701e+00, 5.21539092e-01, 7.74661958e-01,
          -4.24409485e+00, 1.28400218e+00, -1.47406900e+00,
          -1.27339721e+00, 3.62491918e+00, -1.20849468e-01,
          1.67809620e-01, 1.40490997e+00, 1.04619372e+00, 1.63892651e+00,
          1.10479355e+00, -7.97709048e-01, -1.33469927e+00,
          -5.27083158e+00, 2.16145682e+00, 2.49806428e+00,
          6.11311615e-01, 4.79143202e-01, 3.20073694e-01, 1.08464569e-01,
          -9.07680452e-01, -3.72679520e+00, -3.71075416e+00,
          -1.99146593e+00, -1.11791027e+00, 2.79068112e+00,
          3.18695754e-01, -1.17474580e+00, 1.17475367e+00 ]
      - [ 5.09958327e-01, -7.68884897e-01, -9.95628893e-01,
          7.51585543e-01, -1.29607677e+00, -8.13511759e-02,
          -2.50525624e-01, -6.52960658e-01, -1.80930078e+00,
          7.38734365e-01, 5.72777212e-01, -1.31293035e+00,
          4.12912905e-01, 2.27912498e+00, 1.39031589e+00, 5.12249470e-01,
          -5.02969980e-01, -2.28091478e+00, -1.81071961e+00,
          4.59460354e+00, -2.18250656e+00, 2.16762328e+00,
          7.16938496e-01, -7.02055812e-01, 1.51363373e+00,
          1.65270746e+00, -1.63635421e+00, -1.14752913e+00,
          1.62147176e+00, 1.16241252e+00, 9.79634643e-01,
          -9.79637802e-01 ]
      - [ -3.02009106e+00, 1.30608058e+00, 1.47919989e+00,
          -6.65467262e+00, 2.68945646e+00, -6.49112701e-01,
          7.15875924e-01, 3.62893701e-01, 1.66625035e+00,
          -1.84347808e+00, 1.55745983e+00, -8.23692799e-01,
          2.62144709e+00, 6.88034773e-01, -4.71538156e-01,
          3.75887543e-01, -6.88948250e+00, 3.11911440e+00,
          5.56541085e-01, 3.21383190e+00, 3.95706534e+00,
          -4.98474330e-01, 3.28099680e+00, -6.73958158e+00,
          -1.73585618e+00, -5.16082811e+00, 3.26333493e-01,
          -4.09670258e+00, 3.13225293e+00, 6.38118148e-01,
          -2.19254881e-01, 2.19261602e-01 ]
      - [ -4.70372468e-01, -6.25264168e-01, -6.59385860e-01,
          -1.41233432e+00, 8.73302072e-02, -4.88042563e-01,
          -9.09509301e-01, 6.92920908e-02, -7.42057025e-01,
          8.74170721e-01, 9.26854014e-01, -6.92007005e-01,
          2.89318383e-01, 2.04228592e+00, 1.62353516e+00, 8.61860067e-02,
          -3.16735697e+00, -1.24092960e+00, 3.66960585e-01,
          4.04132557e+00, -8.35780978e-01, 1.80315018e+00,
          9.81493771e-01, -1.94886291e+00, 5.46247028e-02,
          -1.15835428e+00, -1.49634874e+00, -2.91193724e+00,
          2.46371818e+00, 1.94456828e+00, 4.03472841e-01,
          -4.03474510e-01 ]
      - [ -5.73082864e-01, 6.23812675e-02, -1.05238869e-03,
          -5.24458349e-01, -5.92697382e-01, -5.35878897e-01,
          -6.53372705e-01, 7.24019408e-01, -9.47592616e-01,
          5.01882911e-01, 4.80736494e-01, 1.07802761e+00,
          -3.95624071e-01, 6.04056776e-01, 4.99065876e-01,
          2.73588866e-01, -1.03621268e+00, -1.05792975e+00,
          1.11305451e+00, 9.81087387e-01, -2.50899696e+00,
          6.32442236e-01, 3.25377166e-01, 1.55117762e+00,
          -3.54636550e-01, -1.07157195e+00, -1.63927805e+00,
          -4.54863906e-01, -2.37276986e-01, 2.33141899e+00,
          -2.06632391e-01, 2.06631556e-01 ]
      - [ 9.12231028e-01, -6.32365465e-01, 2.73741372e-02,
          1.00329030e+00, -8.10549498e-01, 7.60599017e-01,
          3.86113584e-01, 3.97848606e-01, -1.70482779e+00,
          1.09325683e+00, -1.68555522e+00, -5.72703838e-01,
          8.28380883e-01, 3.21463037e+00, -1.94065535e+00,
          -1.27706742e+00, 1.31052959e+00, 7.34011471e-01,
          -2.86983013e+00, 8.25288951e-01, -7.74766088e-01,
          4.43612099e+00, -3.21272278e+00, -4.48632389e-01,
          -1.28979313e+00, 3.31104231e+00, 2.29914501e-01,
          1.81462693e+00, 3.43143988e+00, -5.47598219e+00,
          5.54414332e-01, -5.54416478e-01 ]
      - [ -8.90946567e-01, -9.75662172e-01, -6.89783156e-01,
          -8.64002287e-01, 1.30579817e+00, -4.03473973e-01,
          -1.88021317e-01, 2.69402456e+00, -1.04223751e-01,
          -6.82234049e-01, 2.15360429e-02, 7.77960956e-01,
          -8.60606655e-02, 1.45216078e-01, 1.52506724e-01,
          -2.12634981e-01, -3.42039394e+00, 3.40832782e+00,
          1.30392909e-02, -9.73010261e-04, 2.24567115e-01,
          -1.91615367e+00, -7.03762114e-01, 2.39534855e+00,
          -1.48551953e+00, -1.82031786e+00, -9.64284003e-01,
          9.52218235e-01, -7.27302432e-01, 7.39368916e-01,
          -1.25219393e+00, 1.25219393e+00 ]
      - [ -1.06433046e+00, -7.51244843e-01, -1.47786483e-01,
          -1.19947934e+00, 2.07456946e+00, -5.56849480e-01,
          -2.67992973e+00, 3.81438613e+00, -3.87869060e-01,
          9.81920660e-01, 6.90025985e-01, 6.63858891e-01,
          -6.68816388e-01, 3.10340494e-01, 3.22797418e-01,
          -1.40159333e+00, -3.16284108e+00, 2.65217686e+00,
          1.94793642e+00, -1.43727183e+00, -4.64467295e-02,
          -1.58326589e-02, -1.81489408e+00, 1.87717295e+00,
          -2.33274722e+00, -3.56630349e+00, -2.97855794e-01,
          -2.12808520e-01, 2.35575899e-01, 2.75089443e-01,
          -1.56483173e+00, 1.56483197e+00 ]
      - [ -5.22172630e-01, -2.99028188e-01, -2.83301353e-01,
          -4.73787189e-01, 3.39497387e-01, 4.99430439e-03,
          4.19521565e-03, -1.63199618e-01, 3.30435365e-01,
          5.69350692e-03, 5.79339266e-03, -1.57633603e-01,
          2.98881799e-01, 5.13463616e-01, 5.28790891e-01,
          -1.32622868e-01, -1.57828915e+00, 1.85487330e-01,
          1.84288695e-01, 1.20851350e+00, 4.46641952e-01, 2.25123242e-01,
          2.55478144e-01, -9.27243292e-01, -6.44007802e-01,
          -1.65016681e-01, -4.76709127e-01, -9.16093051e-01,
          1.14847422e+00, 2.44327858e-01, 2.06764191e-02,
          -2.06755586e-02 ]
      - [ -5.08629620e-01, 8.91354904e-02, 1.68054804e-01,
          -3.71986479e-01, 8.07886124e-01, -1.04984295e+00,
          -4.93077338e-01, 2.23866439e+00, 3.41054678e-01,
          -2.33763665e-01, 4.78712887e-01, 1.44959414e+00,
          -7.17945039e-01, -6.16302252e-01, -9.39817548e-01,
          -6.41737342e-01, -6.23425663e-01, 1.50363064e+00,
          2.03559804e+00, -2.91580200e+00, -7.76334181e-02,
          -1.81077302e+00, -7.86127388e-01, 2.67453480e+00,
          -1.72149742e+00, -1.81677186e+00, -6.61451042e-01,
          1.54165542e+00, -1.22695649e+00, 3.46752048e-01,
          -1.29797173e+00, 1.29797220e+00 ]
      - [ -6.38914585e-01, 7.04122931e-02, 3.12221885e-01,
          -5.32823026e-01, 4.88389254e-01, -1.07945788e+00,
          4.85508233e-01, 1.71922469e+00, 8.88032496e-01, 6.75156176e-01,
          -9.96685624e-01, 6.05192900e-01, -1.03001177e+00,
          -6.14683665e-02, -2.60128409e-01, -6.44648492e-01,
          -7.89103389e-01, 1.61366463e+00, 1.17169583e+00,
          -1.99625731e+00, -2.92504579e-01, -3.95358056e-01,
          -4.59083945e-01, 1.14694619e+00, -3.35970712e+00,
          -4.02170300e-01, -1.15957105e+00, 1.98413193e+00,
          4.71708477e-01, -1.29627001e+00, -9.15479064e-01,
          9.15480018e-01 ]
      - [ -6.75628483e-01, -1.05612308e-01, -2.43942216e-01,
          -9.05795217e-01, -2.19139799e-01, -7.07468539e-02,
          -3.29455912e-01, 8.65289688e-01, -3.65522802e-01,
          -1.38892889e-01, 1.08541951e-01, 9.90307510e-01,
          -1.90575451e-01, -2.67602265e-01, 1.09370339e+00,
          4.55071837e-01, -1.93097806e+00, 2.45947093e-01,
          5.94433784e-01, 1.09059739e+00, -1.45086682e+00,
          -5.82854390e-01, 6.28847182e-01, 1.40487373e+00,
          -1.82761624e-01, -1.56471944e+00, -1.07112765e+00,
          -6.13903761e-01, -9.62593555e-01, 2.64762473e+00,
          -4.30553824e-01, 4.30554956e-01 ]
      - [ -1.83903503e+00, 5.86526036e-01, 2.71347451e+00,
          -1.60199130e+00, 3.95307332e-01, -2.23477960e+00,
          1.47507024e+00, 7.55782247e-01, -5.94473243e-01,
          3.43811028e-02, 4.18349236e-01, 1.51669234e-01,
          -1.27866852e+00, 3.86393785e+00, -1.90049803e+00,
          -9.45052683e-01, -1.41025156e-01, 3.91380280e-01,
          9.92607698e-03, -2.60283023e-01, -3.31686974e+00,
          2.25006628e+00, 2.70639539e+00, -1.63959181e+00,
          -4.60051870e+00, -1.37120807e+00, -3.09198165e+00,
          3.34233522e+00, 2.02517605e+00, -2.27553272e+00,
          -3.06979656e-01, 3.06979626e-01 ]
      - [ -6.28932595e-01, 5.68694651e-01, 6.48780107e-01,
          2.31284857e-01, -7.10176945e-01, -1.06880158e-01,
          -4.04652059e-01, 1.11973286e-01, -9.72468615e-01,
          2.67984092e-01, 3.28962266e-01, 1.00096688e-01,
          -5.53584278e-01, 4.81322557e-01, 4.12562162e-01,
          2.25033924e-01, 8.19827020e-01, -1.10973585e+00,
          -2.75425673e-01, 5.65334320e-01, -2.86516237e+00,
          1.21112132e+00, 9.85652268e-01, 6.68388844e-01,
          -1.81816697e-01, -4.58967328e-01, -8.77295017e-01,
          5.87386131e-01, -7.76746213e-01, 1.06665504e+00,
          8.54141116e-02, -8.54146779e-02 ]
      - [ -2.35640955e+00, -1.34507477e+00, -3.43708336e-01,
          6.78682327e-01, 5.35470629e+00, 5.76557755e-01, 3.48300129e-01,
          -6.19132102e-01, 2.95091867e+00, -9.93631780e-01,
          -1.37109816e+00, -3.68541926e-01, -2.55231380e+00,
          -1.54209629e-01, -1.23386003e-01, 3.18340391e-01,
          -3.36651158e+00, 5.66043234e+00, 2.17647448e-01,
          -2.51156998e+00, 3.39690208e+00, -1.91635871e+00,
          -1.48989224e+00, 9.34786443e-03, -2.83260870e+00,
          -2.51896310e+00, 2.22978020e+00, 6.41417652e-02,
          -7.49237478e-01, -1.54468489e+00, -1.43987226e+00,
          1.43987477e+00 ]
      - [ -3.90431619e+00, -5.12811244e-01, 2.42368507e+00,
          9.24219429e-01, 2.78432298e+00, 8.51746261e-01,
          -2.37479663e+00, -2.57734507e-01, 1.59852743e+00,
          1.40413821e+00, -9.25000250e-01, -2.70569056e-01,
          -3.48926210e+00, -7.14481831e-01, 1.56668723e+00,
          8.95645499e-01, -1.06922269e+00, 1.00353861e+00,
          1.80709565e+00, -1.74141157e+00, -3.01072836e+00,
          1.02859163e+00, 6.90574706e-01, 1.29156125e+00,
          -3.08192539e+00, -3.53570056e+00, -7.81058431e-01,
          7.15373933e-01, -1.20107830e+00, 1.26676309e+00,
          -1.04391241e+00, 1.04391515e+00 ]
      - [ -1.03459406e+00, 9.40081716e-01, 1.36700797e+00,
          -9.31324959e-01, 4.03920859e-01, 1.95195407e-01,
          -1.10555220e+00, 2.64613652e+00, -9.97858822e-01,
          -1.95431367e-01, -4.58021760e-02, 1.20000339e+00,
          -1.03675508e+00, 1.36586353e-01, -4.02118191e-02,
          -1.50140190e+00, 3.41170549e-01, 2.13970041e+00,
          -3.90890539e-02, -2.44178247e+00, -2.66528726e+00,
          1.07643294e+00, 1.75441429e-01, 1.41341317e+00,
          -2.38660312e+00, -3.26906323e+00, 5.04603803e-01,
          1.97626746e+00, -2.09345913e+00, -3.87412310e-01,
          -1.15158963e+00, 1.15158975e+00 ]
      - [ -1.32879734e+00, 6.81016266e-01, 9.10261512e-01,
          1.95040464e-01, 3.06675553e-01, -8.56767118e-01,
          -1.90818489e-01, 4.06813443e-01, -5.31373799e-01,
          -3.61224622e-01, 1.03033638e+00, 1.45340472e-01,
          -1.33934009e+00, 3.95158321e-01, 3.47910017e-01,
          1.89769119e-01, 4.57520753e-01, -3.34096700e-01,
          2.83078462e-01, -4.06502694e-01, -2.89283609e+00,
          -1.41816899e-01, 2.09768915e+00, 9.36963677e-01,
          -9.65459585e-01, -1.69634259e+00, -1.19787276e+00,
          1.32129693e+00, -1.83678031e+00, 1.71335614e+00,
          -3.78473669e-01, 3.78472805e-01 ]
      - [ -1.89000189e-01, 6.92646086e-01, 4.13248211e-01,
          -6.09469235e-01, -1.48633588e-02, 4.09087211e-01,
          -5.26500821e-01, 1.86064228e-01, -2.42008924e-01,
          -4.70473528e-01, 5.07826090e-01, -1.40985753e-02,
          -1.00246286e+00, 6.03049815e-01, 5.95598698e-01,
          -3.38643014e-01, 3.07424873e-01, 5.37873842e-02,
          -2.18755037e-01, -1.42457440e-01, -1.44833541e+00,
          1.23430967e+00, 9.90172088e-01, -7.76146591e-01,
          3.89270008e-01, -2.60890627e+00, 8.97869766e-01,
          -5.36657572e-01, -1.11189556e+00, 7.50683248e-01,
          -8.00612047e-02, 8.00608173e-02 ]
      - [ -7.93584436e-02, -1.47881836e-01, -2.32789125e-02,
          -6.51809514e-01, 1.79270264e-02, 6.30073771e-02,
          -4.51180756e-01, -6.22341514e-01, 2.59663284e-01,
          5.88326037e-01, 3.88403207e-01, 3.97284716e-01, 5.41916043e-02,
          -2.53917426e-01, 4.09531534e-01, 5.14336117e-02,
          -9.02328789e-01, -9.92587805e-01, 1.63367736e+00,
          2.61239320e-01, 2.52423465e-01, 2.49534175e-01, 3.23475003e-01,
          -8.25432718e-01, 4.23485696e-01, -4.60472673e-01,
          -1.46305799e-01, -1.74861073e+00, 6.48263514e-01,
          1.24665296e+00, 5.88556051e-01, -5.88556051e-01 ]
      - [ -3.33998591e-01, -7.84572959e-02, -2.40710214e-01,
          -8.52283657e-01, 9.10332054e-02, -2.03056231e-01,
          -7.98531324e-02, -1.06125176e+00, 5.73888361e-01,
          7.92421043e-01, 9.16736126e-01, 6.81560636e-01, 3.36759031e-01,
          -2.55076647e-01, -5.45332432e-01, 2.57621378e-01,
          -1.50544965e+00, -1.25312793e+00, 2.96460629e+00,
          -2.06028834e-01, 6.67681515e-01, 2.55830735e-01,
          5.08402996e-02, -9.74353492e-01, 6.37302697e-01,
          1.97043255e-01, -5.24478614e-01, -2.23409867e+00,
          1.44799137e+00, 1.31058526e+00, 1.42624807e+00,
          -1.42624819e+00 ]
      - [ 2.35007420e-01, -6.12556152e-02, -5.60843945e-01,
          -2.10019261e-01, 3.23049575e-01, -6.86624050e-01,
          -4.05507237e-01, -2.17528746e-01, 3.63986373e-01,
          6.08021319e-01, 1.26080494e-02, -2.11831392e-03,
          1.66689932e-01, 2.69281179e-01, 1.76945537e-01,
          -1.16921682e-02, -5.97111344e-01, -9.86610413e-01,
          9.82497275e-01, 6.01224482e-01, 1.08873332e+00, 1.29422963e-01,
          -7.76797533e-01, -4.41358417e-01, -4.50700730e-01,
          1.59184813e-01, -1.89822659e-01, -1.39389908e+00,
          1.40797889e+00, 1.75743118e-01, -4.71501976e-01,
          4.71502393e-01 ]
      - [ -1.25854284e-01, -5.34555912e-01, -1.86108738e-01,
          -3.20605874e-01, 9.66903418e-02, -7.20918775e-01,
          -2.69220144e-01, -3.19721401e-01, 3.28032374e-01,
          5.66996634e-01, 4.03076649e-01, 4.92359281e-01, 9.36643705e-02,
          3.11663181e-01, 3.92930862e-03, 1.80573091e-01,
          -1.16712487e+00, -1.21316981e+00, 1.79046512e+00,
          5.89829981e-01, 3.92532825e-01, -3.76814783e-01,
          -4.83228974e-02, 3.26050855e-02, -2.63123333e-01,
          7.08350688e-02, -1.28463876e+00, -1.09565616e+00,
          1.30035663e+00, 1.07993829e+00, -2.00655609e-02,
          2.00654548e-02 ]
      - [ 4.18995135e-02, -4.59581763e-01, -4.34642434e-01,
          -2.25370154e-01, 2.59147942e-01, -6.43512845e-01,
          -4.37602878e-01, -2.62132734e-01, 3.41863275e-01,
          4.31560248e-01, 5.36460161e-01, 4.07594204e-01, 1.31901577e-01,
          2.42865965e-01, -9.62039009e-02, 1.65753826e-01,
          -1.07769489e+00, -1.08410060e+00, 1.71747804e+00,
          4.44317460e-01, 7.74812400e-01, -4.28668410e-01,
          -4.31989104e-01, 8.58451650e-02, 1.00600600e-01,
          -9.95111391e-02, -8.02047074e-01, -1.35974824e+00,
          1.14819109e+00, 1.01360428e+00, -1.13095224e-01,
          1.13095105e-01 ]
      - [ 3.84611666e-01, 8.38283971e-02, 0., -4.67644185e-02,
          -3.59880269e-01, -5.71839154e-01, -4.56578463e-01,
          -1.08486319e+00, 1.08342797e-01, -4.27877635e-01,
          1.99931443e-01, 1.08885658e+00, 1.97857618e-02, 5.70118949e-02,
          5.91431975e-01, 4.14002389e-01, 4.21675652e-01,
          -2.47316122e+00, 9.69253600e-01, 1.08223200e+00,
          1.52860165e-01, -8.58876765e-01, 3.34785014e-01,
          3.71231228e-01, 4.26706254e-01, -9.11434829e-01,
          -4.63279337e-01, -1.58820605e+00, -2.42737040e-01,
          2.29422259e+00, -1.25636375e+00, 1.25636232e+00 ]
      - [ 2.14586556e-01, -1.92404822e-01, -3.75386298e-01,
          -2.22268209e-01, 3.61255497e-01, -8.27514529e-01,
          -6.81378961e-01, -5.53403914e-01, 4.34154809e-01,
          4.79098767e-01, 7.53329277e-01, 2.58287251e-01, 3.28745335e-01,
          5.34691922e-02, -1.40051931e-01, 1.09482080e-01,
          -5.75472772e-01, -1.70104182e+00, 1.92487013e+00,
          3.51644635e-01, 1.33874226e+00, -4.87351418e-01,
          -4.43487942e-01, -4.07902867e-01, 2.49883279e-01,
          -9.58030596e-02, -4.44077343e-01, -1.83243740e+00,
          1.29546809e+00, 9.81046736e-01, -2.76465327e-01,
          2.76465446e-01 ]
      - [ 6.40276223e-02, -6.87113404e-01, -8.28535780e-02,
          -4.03911203e-01, 2.47620389e-01, -5.61933458e-01,
          -8.71048629e-01, -3.28379065e-01, 4.20641959e-01,
          8.58759701e-01, 2.03493878e-01, 8.27567518e-01, 1.04424074e-01,
          -2.78782815e-01, 1.30517870e-01, 3.56969297e-01,
          -1.10985065e+00, -1.51374066e+00, 2.31046295e+00,
          3.13128412e-01, 8.36713910e-01, -6.69069886e-01,
          -6.19890332e-01, 4.52246547e-01, 6.25572726e-02,
          -3.11775923e-01, -9.37398911e-01, -1.68619251e+00,
          1.10504293e+00, 1.51854849e+00, -3.70728344e-01,
          3.70729208e-01 ]
      - [ 2.75144041e-01, -6.05629245e-03, -3.40349108e-01,
          -6.80489600e-01, 9.61593464e-02, -5.48140585e-01,
          -6.41547203e-01, 2.23263446e-02, 8.70433450e-02,
          4.30320859e-01, 3.16380799e-01, 7.29248881e-01, 2.57975131e-01,
          2.89467156e-01, 3.45731080e-02, -3.22056174e-01,
          -7.51751006e-01, -1.07120216e+00, 1.56299376e+00,
          2.59959280e-01, 7.16321886e-01, 1.65591151e-01,
          -6.30942345e-01, -2.50970453e-01, -2.78671801e-01,
          -6.33740723e-01, -1.82893500e-01, -1.64005947e+00,
          1.06480646e+00, 7.58146584e-01, -4.42986101e-01,
          4.42986280e-01 ]
      - [ 8.42467770e-02, -3.88054043e-01, -4.23495650e-01,
          -2.47816652e-01, 1.91368446e-01, -4.04049307e-01,
          -3.29777956e-01, -3.68533731e-01, 3.92970622e-01,
          3.15847248e-01, 4.49569553e-01, 2.47643232e-01, 3.49622548e-01,
          5.38413562e-02, -9.54857990e-02, 1.72103360e-01,
          -9.75119531e-01, -9.10992503e-01, 1.40603077e+00,
          4.80081409e-01, 1.01820827e+00, -4.22414750e-01,
          -3.99189860e-01, -1.96603820e-01, 3.01870406e-01,
          8.78752768e-02, -5.16488075e-01, -1.36962402e+00,
          1.11228180e+00, 7.73830354e-01, 3.15896533e-02,
          -3.15895118e-02 ]
      - [ 1.78302646e-01, -4.61024642e-01, -5.16427159e-01,
          -1.29106790e-02, -1.00659549e-01, -2.13215187e-01,
          -2.13215187e-01, -4.06437725e-01, 8.22185427e-02,
          4.75805283e-01, 4.49983895e-01, 8.22185427e-02, 3.27024102e-01,
          9.62631404e-02, 9.62631404e-02, 1.35810792e-01,
          -8.12059820e-01, -9.33527648e-01, 1.09022641e+00,
          6.55361176e-01, 4.86885786e-01, -1.02171369e-01,
          -1.83395252e-01, -2.01319098e-01, 5.50882161e-01,
          5.76703548e-01, -5.96596658e-01, -1.14899063e+00,
          9.81311142e-01, 7.64276505e-01, 4.99358803e-01,
          -4.99359369e-01 ]
      - [ 9.43682790e-02, -3.87374759e-01, -4.18227375e-01,
          -3.10098767e-01, 2.14967161e-01, -2.69668400e-01,
          -1.16904214e-01, -4.31367278e-01, 4.26253110e-01,
          1.94830582e-01, 4.48094815e-01, 9.40359309e-02, 3.20968449e-01,
          3.87974009e-02, -1.07384466e-01, 2.08709598e-01,
          -1.02133250e+00, -6.02972746e-01, 1.16321468e+00,
          4.61090893e-01, 1.05655694e+00, -4.23415154e-01,
          -1.94421276e-01, -4.38720465e-01, 4.81504321e-01,
          8.87960419e-02, -3.47707689e-01, -1.27659762e+00,
          9.80849445e-01, 6.43455982e-01, 2.56352872e-01,
          -2.56352514e-01 ]
      - [ 9.64654237e-03, -3.35777283e-01, -3.70888859e-01,
          -2.59622186e-01, 8.95162076e-02, -2.67862886e-01,
          -2.67862886e-01, -2.77669460e-01, 2.29962513e-01,
          3.62659574e-01, 3.62659574e-01, 1.55784741e-01, 2.21550375e-01,
          1.45886764e-01, 1.53304532e-01, 4.87127341e-02,
          -9.56641793e-01, -7.23879039e-01, 1.11106658e+00,
          5.69454372e-01, 5.50675631e-01, -9.50938016e-02,
          -1.22787602e-01, -3.32794189e-01, 1.53155938e-01,
          5.67248948e-02, -5.04477441e-01, -1.17604339e+00,
          9.60059285e-01, 7.20461667e-01, 1.89593375e-01,
          -1.89593613e-01 ]
      - [ -8.62003937e-02, -2.22626850e-01, -2.72046864e-01,
          -2.35503256e-01, -4.54069823e-02, -3.69786441e-01,
          -3.48693877e-01, -8.87457430e-02, 8.32462907e-02,
          3.33604306e-01, 3.25429678e-01, 4.97676194e-01, 7.85950571e-02,
          1.09046452e-01, 1.25288054e-01, 1.16124444e-01,
          -8.16377461e-01, -8.52633119e-01, 1.23995662e+00,
          4.29053992e-01, 3.02339923e-02, -1.49762511e-01,
          -1.70022994e-01, 2.89551616e-01, -1.44327618e-02,
          -1.71997726e-01, -7.24020720e-01, -9.44989741e-01,
          6.04492128e-01, 1.06451845e+00, -5.94464056e-02,
          5.94460778e-02 ]
      - [ 2.68522978e-01, -6.29270613e-01, -6.30318701e-01,
          -1.70356408e-02, -3.99222523e-02, -2.40576118e-01,
          -3.37127805e-01, -4.13704962e-01, 1.79923788e-01,
          6.60506725e-01, 2.40277916e-01, 2.53728539e-01, 4.85038429e-01,
          1.92140847e-01, -2.50785798e-01, 2.78602630e-01,
          -1.00810206e+00, -1.03133118e+00, 1.33443713e+00,
          7.04996109e-01, 8.93562913e-01, -1.71990842e-02,
          -9.77954447e-01, 1.01590604e-01, 5.46827376e-01,
          7.91381776e-01, -6.41246080e-01, -1.39818716e+00,
          1.51760995e+00, 5.21823168e-01, 3.23080838e-01,
          -3.23080808e-01 ]
      - [ -7.76181072e-02, -4.71064776e-01, -4.74279642e-01,
          -3.07100892e-01, 4.71262217e-01, -4.12498772e-01,
          -3.22471857e-01, -8.75779316e-02, 5.44168830e-01,
          1.89462245e-01, 2.55443990e-01, 4.17501628e-01,
          -6.84966967e-02, 5.89236692e-02, 1.69673786e-01,
          1.14672385e-01, -1.33006334e+00, -3.51286352e-01,
          1.40657663e+00, 2.74773121e-01, 8.69316161e-01,
          -6.35177612e-01, -3.71633768e-01, 1.37495250e-01,
          -1.20000497e-01, -5.08607149e-01, -4.89919335e-01,
          -1.19143033e+00, 7.24057972e-01, 9.57291722e-01,
          -2.90064484e-01, 2.90064931e-01 ]
      - [ -9.36383158e-02, -2.89595783e-01, -2.95814574e-01,
          -2.42936924e-01, 3.33883613e-01, -4.45801169e-01,
          -5.19220531e-01, -1.88033953e-02, 2.85085946e-01,
          2.78291762e-01, 2.42730245e-01, 2.41510034e-01, 1.48991659e-01,
          1.86015487e-01, 1.99015349e-01, -9.71335266e-03,
          -9.21985567e-01, -6.49941504e-01, 1.04761803e+00,
          5.24309158e-01, 6.74322903e-01, -2.71089673e-01,
          -3.73289555e-01, -2.99436338e-02, -3.06422532e-01,
          -3.34874004e-01, -4.95151639e-01, -1.07677543e+00,
          8.98384869e-01, 6.73542321e-01, -4.43999648e-01,
          4.43999559e-01 ]
      - [ -1.72037750e-01, -2.25078836e-01, -2.32394844e-01,
          -2.09155366e-01, 1.18885204e-01, 1.64610296e-02,
          1.82900317e-02, -1.13830872e-01, 1.62781283e-01,
          1.81071311e-01, 1.82900324e-01, 2.51733828e-02, 9.69371721e-02,
          9.14501622e-02, 9.14501622e-02, -3.29023898e-02,
          -8.38666737e-01, 3.98053937e-02, 5.51926374e-01,
          2.46935084e-01, 2.06565887e-01, 6.39036670e-02, 6.02456555e-02,
          -3.30715239e-01, -5.57878520e-03, 8.71431530e-02,
          -2.61770338e-01, -5.37091076e-01, 5.32239914e-01,
          2.66621470e-01, 3.98722708e-01, -3.98722649e-01 ]
      - [ 3.16918194e-02, -3.68081063e-01, -3.84881109e-01,
          -2.32431412e-01, 3.07301283e-01, -5.71198702e-01,
          -4.05851781e-01, -3.17679830e-02, 5.15414715e-01,
          3.29232961e-01, 4.56843168e-01, 5.93676686e-01,
          -4.96391281e-02, -2.19249040e-01, -7.47818202e-02,
          1.03721537e-01, -9.53701735e-01, -7.01517105e-01,
          1.89516747e+00, -2.39948541e-01, 8.04768622e-01,
          -8.29295814e-01, -4.08671558e-01, 4.33198839e-01,
          2.10577771e-02, -3.58689308e-01, -6.00286663e-01,
          -1.05493236e+00, 5.75759411e-01, 1.07945943e+00,
          -1.90974444e-01, 1.90974668e-01 ]
      - [ -1.02764592e-01, -4.12524372e-01, -3.80331308e-01,
          -2.96176106e-01, 3.10274124e-01, -6.58003628e-01,
          -2.55591631e-01, -3.86316702e-02, 6.67669058e-01,
          6.64027035e-01, 8.98430869e-03, 4.75625187e-01,
          -2.31998026e-01, 5.58438599e-02, 1.49047717e-01,
          4.45502847e-02, -1.19179642e+00, -6.41952753e-01,
          1.81630540e+00, 1.74438413e-02, 6.43180549e-01,
          -3.50657135e-01, -4.77890998e-01, 1.85367763e-01,
          -7.07233608e-01, -1.19738653e-01, -8.63018453e-01,
          -9.70730782e-01, 1.15554190e+00, 6.78207457e-01,
          -2.40583897e-01, 2.40583882e-01 ]
      - [ -7.57218152e-02, -2.61235625e-01, -2.93132067e-01,
          -2.47382522e-01, -5.85663691e-02, -3.22436094e-01,
          -2.89704949e-01, 4.28445637e-02, 1.37192011e-01,
          1.30735651e-01, 4.56827641e-01, 4.78446603e-01, 1.29983589e-01,
          -9.49320048e-02, 1.55443892e-01, 1.11637540e-01,
          -8.77471983e-01, -6.27862871e-01, 1.20320201e+00,
          3.02132994e-01, 1.32887408e-01, -5.47868073e-01,
          2.94345599e-02, 3.85546178e-01, 1.70307264e-01,
          -2.76368201e-01, -7.17959940e-01, -7.87374973e-01,
          3.02979261e-01, 1.20235574e+00, -2.45777424e-02,
          2.45777648e-02 ]
      - [ -1.80209532e-01, -4.24198866e-01, -2.59884268e-01,
          -4.09514606e-01, 1.03955917e-01, -3.67738992e-01,
          2.62916610e-02, -3.11279088e-01, 2.83610106e-01,
          5.46160161e-01, 5.85803151e-01, 3.23253095e-01, 5.35052754e-02,
          2.49587536e-01, -2.30804622e-01, 1.14630386e-02,
          -1.27380729e+00, -5.48770607e-01, 1.73882663e+00,
          8.37510675e-02, 2.60861605e-01, 3.80991632e-03, 1.21405862e-01,
          -3.86077553e-01, 4.93176505e-02, 2.16442510e-01,
          -8.68191421e-01, -9.54386353e-01, 1.13286293e+00,
          6.89714611e-01, 7.90516019e-01, -7.90515840e-01 ]
      - [ -3.86638165e-01, 8.47689584e-02, 0., 0., -5.55732369e-01,
          -6.26816869e-01, -5.78810692e-01, -3.51391703e-01,
          -2.46317647e-02, 6.92723632e-01, 5.96711278e-01,
          1.91395879e-01, -1.85959101e-01, 4.23844784e-01,
          4.23844784e-01, 2.96691328e-01, -3.01869184e-01,
          -2.11275172e+00, 1.45619953e+00, 9.58421767e-01,
          -1.15296125e+00, 5.74520648e-01, 4.41745430e-01,
          1.36695445e-01, -1.20052375e-01, -7.20459893e-02,
          -1.48441827e+00, -9.30202425e-01, 9.05977666e-01,
          1.50864339e+00, 8.38074908e-02, -8.38080347e-02 ]
      - [ -6.71938658e-02, -6.03476167e-01, -6.01288140e-01,
          -1.78353548e-01, 4.04588312e-01, -2.26313472e-02,
          -3.23362872e-02, -4.18920219e-01, 4.37757492e-01,
          2.28906065e-01, 2.06705987e-01, 1.39673099e-01, 1.40665054e-01,
          9.87537876e-02, 9.87537876e-02, 1.68395907e-01,
          -1.45031166e+00, -6.92996010e-02, 1.01304281e+00,
          5.06568491e-01, 9.15816844e-01, -2.98447669e-01,
          -3.28164607e-01, -2.89204776e-01, 2.85276741e-01,
          1.58881277e-01, -2.88713008e-01, -1.23089814e+00,
          9.06082332e-01, 6.13528788e-01, 3.80644411e-01,
          -3.80644739e-01 ]
      - [ -4.99258906e-01, -4.37331706e-01, 0., 0., 7.37535954e-01,
          -5.08115530e-01, -9.36061561e-01, -5.23520470e-01,
          1.01125658e+00, 7.35879242e-01, 3.07933211e-01,
          -1.57944828e-01, -3.35377544e-01, -1.03246197e-01,
          2.83495784e-01, 4.24755871e-01, -9.36590612e-01,
          -1.23016143e+00, 1.89712465e+00, 2.69627780e-01,
          9.14156079e-01, -3.12814146e-01, -3.44632566e-01,
          -2.56709456e-01, -2.74685353e-01, -5.35559833e-01,
          -7.07170188e-01, -1.45958209e+00, 1.30851209e+00,
          8.58240008e-01, -4.00364578e-01, 4.00363833e-01 ]
      - [ -2.39868239e-01, 3.95399854e-02, -2.73920186e-02,
          -4.47710484e-01, 3.46713394e-01, -6.17993653e-01,
          -6.58229411e-01, -6.93210438e-02, 4.10861224e-01,
          2.44587481e-01, 2.39833653e-01, 4.20442045e-01, 1.82003323e-02,
          2.66936690e-01, 2.68736869e-01, -1.95336774e-01,
          -6.75430715e-01, -9.98830736e-01, 1.31572449e+00,
          3.58537108e-01, 5.35906792e-01, -6.69294298e-02,
          -1.77050889e-01, -2.91926324e-01, -8.13365042e-01,
          -8.43151987e-01, -4.71608520e-01, -1.20265293e+00,
          9.40585792e-01, 7.33675897e-01, -7.91801989e-01,
          7.91801512e-01 ]
      - [ -4.27047729e-01, 5.21961451e-02, 0., 0., 2.77611107e-01,
          -1.12873328e+00, -4.98389840e-01, -2.72000730e-01,
          4.68757063e-01, -2.97149904e-02, 4.02533382e-01,
          3.15416455e-01, -1.85699582e-01, 3.51270556e-01,
          3.96353811e-01, 2.77447641e-01, -3.74851584e-01,
          -1.62151277e+00, 1.15699220e+00, 8.39372337e-01,
          1.33620813e-01, -7.54981518e-01, 3.00497413e-01,
          3.20863307e-01, -8.75800073e-01, -7.13804364e-01,
          -1.22597361e+00, -7.70390570e-01, 6.04613066e-01,
          1.39175141e+00, -1.25430477e+00, 1.25430417e+00 ]
      - [ -3.60663012e-02, 4.07635123e-02, -1.76872477e-01,
          -5.12930155e-01, 7.03466386e-02, -1.33715821e-02,
          -4.70186234e-01, -3.08352500e-01, 2.31300026e-01,
          1.67920485e-01, 7.01591671e-01, 2.60884672e-01,
          -3.26096207e-01, 2.06994504e-01, 2.95430750e-01,
          -1.31356865e-01, -6.85105443e-01, -7.21563637e-01,
          1.36169696e+00, 4.49721068e-02, -6.05158731e-02,
          4.02306944e-01, 3.49963695e-01, -6.91754937e-01,
          5.20796895e-01, -1.14129198e+00, 6.16722815e-02,
          -1.46834135e+00, 2.80118853e-01, 1.12655020e+00,
          3.85954291e-01, -3.85954469e-01 ]
      - [ -4.50834304e-01, 3.31209809e-01, -6.65167928e-01,
          1.26432645e+00, 2.00893447e-01, -6.73595726e-01,
          1.90805578e+00, 9.97723103e-01, 1.05757348e-01,
          -8.83416414e-01, 7.52493680e-01, -2.08458140e-01,
          1.90238953e-01, 3.64568383e-01, -3.30499911e+00,
          7.12045431e-02, 4.79534417e-01, 2.43307662e+00,
          -2.33623773e-01, -2.67898726e+00, 4.60551493e-02,
          -8.61233950e-01, -1.30961752e+00, 2.12479615e+00,
          -3.00731301e-01, 2.47920489e+00, -5.92326522e-01,
          3.50493741e+00, -2.22852007e-01, -2.68976021e+00,
          1.10353732e+00, -1.10353875e+00 ]
      - [ 5.12522876e-01, -2.40937136e-02, -9.21369493e-01,
          2.80134469e-01, 7.74244666e-02, -9.55994725e-01,
          3.00723195e-01, 4.80445921e-01, 3.10074687e-01, 1.43125415e-01,
          -4.00530249e-01, -4.71820682e-01, 3.32447261e-01,
          6.89581811e-01, -2.66098857e-01, -8.65723565e-02,
          -1.52805835e-01, -9.74011421e-02, -4.19150829e-01,
          6.69357896e-01, 1.23246908e+00, -1.47381216e-01,
          -1.28727531e+00, 2.02187344e-01, -9.30574596e-01,
          1.05643046e+00, -3.90141070e-01, 1.39934286e-01,
          1.47522914e+00, -1.22502220e+00, -9.12676275e-01,
          9.12677050e-01 ]
      - [ -3.42031300e-01, -1.01075625e+00, -5.49595118e-01,
          8.78115594e-01, -5.77340312e-02, -1.54692149e+00,
          9.78710234e-01, 5.55427849e-01, -3.56995203e-02,
          -3.14855963e-01, 9.22252357e-01, -7.83924684e-02,
          1.58508807e-01, 1.41092575e+00, -1.15006125e+00,
          1.82106629e-01, -1.02426708e+00, -7.05177337e-02,
          4.93304759e-01, 6.01479650e-01, -2.76956290e-01,
          -1.46160758e+00, 2.01306358e-01, 1.53725755e+00,
          -7.84593344e-01, 1.70047879e+00, -2.95744324e+00,
          1.86265838e+00, 1.21887898e+00, -1.24094516e-01,
          3.91849801e-02, -3.91854197e-02 ]
      - [ 3.39685529e-01, -1.06170344e+00, -1.49453807e+00,
          8.64216924e-01, 2.95709193e-01, -1.67744339e+00,
          9.24502492e-01, 7.02171683e-01, 1.34634495e-01,
          -5.49429357e-01, 1.07202625e+00, -3.52056772e-02,
          4.94269252e-01, 1.28073919e+00, -1.42540121e+00,
          1.35765806e-01, -1.35233891e+00, 2.44939610e-01,
          6.22026145e-01, 4.85372782e-01, 1.26429808e+00,
          -2.00783730e+00, -9.23410356e-01, 1.66694915e+00,
          -1.29965529e-01, 1.73355973e+00, -2.10375190e+00,
          9.96352792e-01, 1.36021340e+00, -2.52814710e-01,
          -2.30343953e-01, 2.30344221e-01 ]
      - [ -4.77913052e-01, -1.78975746e-01, 5.25683276e-02,
          7.71551371e-01, -4.26817119e-01, -2.09756121e-01,
          -5.74914441e-02, 7.98409879e-02, -3.64936553e-02,
          -1.15091634e+00, -1.04557283e-01, 8.85919452e-01,
          -7.93522000e-01, 7.79185474e-01, 0., 8.67377400e-01,
          1.67230919e-01, -6.14223897e-01, -4.06047583e-01,
          8.53040934e-01, -1.73474586e+00, -7.60462761e-01,
          -1.09480277e-01, 2.60468888e+00, 7.51507953e-02,
          -1.23037815e+00, -1.29346192e+00, 8.46469402e-01,
          -1.20174611e+00, 1.64873958e+00, -1.52272117e+00,
          1.52272248e+00 ]
      - [ 5.12439311e-01, -5.69378853e-01, -1.80597758e+00,
          1.24050272e+00, 4.36322778e-01, -2.05961943e+00,
          1.11695743e+00, 9.78796959e-01, 8.72104466e-02,
          -9.36038136e-01, 1.30604136e+00, -3.30821455e-01,
          7.22065449e-01, 1.21659112e+00, -2.08491874e+00,
          1.69826463e-01, -6.22414052e-01, 4.72457618e-01,
          1.26392499e-01, 2.35639270e-02, 1.75803745e+00,
          -2.34844542e+00, -1.46789742e+00, 2.05830455e+00,
          -7.13118911e-02, 2.14348745e+00, -1.68023598e+00,
          1.53027940e+00, 1.08982849e+00, -9.39872086e-01,
          -5.72658658e-01, 5.72660089e-01 ]
      - [ 8.72183084e-01, -1.83317327e+00, -1.04201519e+00,
          1.44738853e+00, 7.05269575e-02, -8.63877535e-01,
          2.56843477e-01, 1.07055902e+00, -2.01684371e-01,
          8.37715685e-01, -8.18376616e-03, -2.70694077e-01,
          7.25869536e-01, 3.41655672e-01, -2.29329300e+00,
          8.90178978e-01, -5.55616558e-01, 5.34050941e-01,
          3.57154250e-01, -3.35589498e-01, 1.46689427e+00,
          -1.51767933e+00, -3.08664823e+00, 3.13743281e+00,
          8.90301108e-01, 3.26781702e+00, -1.75434053e+00,
          1.73277581e+00, 1.70355642e+00, -1.68199170e+00,
          2.22497791e-01, -2.22496912e-01 ]
      - [ 7.32318997e-01, 9.33336243e-02, -5.09810567e-01,
          -7.62211680e-02, -3.35910618e-02, -1.13915241e+00,
          -1.10444233e-01, 1.04196918e+00, -2.51131117e-01,
          -3.00060004e-01, -2.45875418e-01, 6.66585326e-01,
          6.25536382e-01, 6.97791815e-01, -6.89723909e-01,
          -5.01525283e-01, 2.39620849e-01, -2.41218567e-01,
          -1.30481303e-01, 1.32079035e-01, 1.07313299e+00,
          -6.48087144e-01, -1.55585396e+00, 1.13080788e+00,
          -1.15423405e+00, 1.38810933e-01, -3.47090781e-01,
          3.45493227e-01, 7.72137046e-01, -7.70539165e-01,
          -1.79553199e+00, 1.79553235e+00 ]
      - [ -1.14331146e-04, -1.07968855e+00, -1.61382568e+00,
          5.26636302e-01, 5.46161890e-01, -1.16286421e+00,
          5.28124392e-01, 7.90692210e-01, 5.99825382e-01,
          -1.34699225e-01, 6.46881700e-01, 2.95528919e-02,
          7.21829176e-01, 8.22793722e-01, -1.37476492e+00,
          1.53459296e-01, -2.16699219e+00, 7.02114046e-01,
          1.14156103e+00, 3.23317170e-01, 1.86770189e+00,
          -1.55445838e+00, -1.81358445e+00, 1.50034070e+00,
          -3.62637252e-01, 1.64189100e+00, -1.69650531e+00,
          2.31627196e-01, 2.00974917e+00, -5.44870853e-01,
          -1.22557394e-01, 1.22557670e-01 ]
      - [ 4.94413435e-01, -1.24229741e+00, -1.71041119e+00,
          1.20196223e+00, -2.27687478e-01, -7.10185826e-01,
          5.56559384e-01, 8.44454020e-02, -4.19588476e-01,
          6.28323928e-02, 5.34131587e-01, -3.77747029e-01,
          3.74581486e-01, 1.28774428e+00, -4.14551318e-01,
          5.05798519e-01, -1.25633299e+00, -2.96868771e-01,
          -2.00371176e-01, 1.75357306e+00, 2.21719101e-01,
          -6.01906478e-01, -1.03427148e+00, 1.41445923e+00,
          8.24157655e-01, 2.19593573e+00, -1.68575716e+00,
          1.32555768e-01, 1.30556989e+00, 2.47631773e-01, 4.43337500e-01,
          -4.43338037e-01 ]
      - [ 1.62758067e-01, -1.00219452e+00, -1.54174829e+00,
          3.70361149e-01, 8.30912352e-01, -8.53241861e-01,
          9.12676573e-01, 3.28027248e-01, 7.59913266e-01,
          -5.06249905e-01, 7.46228158e-01, -1.97350264e-01,
          5.29718339e-01, 6.25290811e-01, -1.55960727e+00,
          3.94506276e-01, -2.01082349e+00, 1.21837425e+00,
          8.02541852e-01, -1.00917835e-02, 2.28330207e+00,
          -1.73639536e+00, -1.44245076e+00, 8.95544767e-01,
          4.50250775e-01, 1.30650628e+00, -8.61765981e-01,
          6.93166777e-02, 1.40867257e+00, -6.16222799e-01,
          2.99413055e-01, -2.99412072e-01 ]
      - [ 6.06845208e-02, -1.32033527e+00, -1.63164234e+00,
          2.71271139e-01, 3.44752580e-01, -1.09672368e+00,
          3.32415462e-01, 6.09848499e-01, 2.74588585e-01,
          -5.56887724e-02, 5.53215861e-01, -2.12448016e-01,
          2.03757077e-01, 1.37551069e+00, -1.12725444e-01,
          4.03518885e-01, -2.62002182e+00, 1.90293148e-01,
          5.59667766e-01, 1.87006128e+00, 8.83782506e-01,
          -1.09723699e+00, -8.58736396e-01, 1.07219040e+00,
          -7.93043971e-02, 7.51754940e-01, -2.01162171e+00,
          -4.18106884e-01, 1.79816759e+00, 6.31561220e-01,
          -2.66781062e-01, 2.66781598e-01 ]
      - [ -4.66227978e-02, -6.42408013e-01, -7.69032598e-01,
          1.74100190e-01, -1.41483396e-01, -9.15943801e-01,
          1.71904936e-02, 5.65733850e-01, -9.03683528e-02,
          5.20780347e-02, 1.24580212e-01, 6.30637169e-01, 5.12681380e-02,
          5.89482546e-01, -1.19487219e-01, 5.20275652e-01,
          -1.28396344e+00, -4.74502981e-01, 7.16927171e-01,
          1.04153919e+00, -2.27206573e-01, -9.16791201e-01,
          -7.46749043e-01, 1.89074683e+00, -3.17710757e-01,
          2.94636905e-01, -1.74645805e+00, -1.20079108e-02,
          6.02460444e-01, 1.15600586e+00, -7.22095251e-01,
          7.22095191e-01 ]
      - [ 4.81048614e-01, -9.58336592e-01, -1.25646639e+00,
          1.02826858e+00, 5.24288826e-02, -3.75268668e-01,
          6.18615866e-01, 4.58412856e-01, -1.21285975e-01,
          1.13368884e-01, -4.44166884e-02, -1.52315304e-01,
          4.48342949e-01, 9.49864864e-01, -1.39883757e+00,
          1.56575873e-01, -7.05485880e-01, 7.54188716e-01,
          -2.04648927e-01, 1.55946180e-01, 8.60534310e-01,
          -2.70371407e-01, -2.08110476e+00, 1.49094200e+00,
          2.17939094e-01, 2.20859647e+00, -8.00127923e-01,
          8.48830760e-01, 1.39029074e+00, -1.43899393e+00,
          3.12299371e-01, -3.12299490e-01 ]
      - [ -1.64139181e-01, -6.28359556e-01, -8.39047790e-01,
          1.51327789e-01, 6.74864173e-01, -7.80830681e-01,
          3.12439173e-01, 8.70503187e-01, 5.88020205e-01,
          -4.66323555e-01, 1.98947921e-01, 4.22479421e-01,
          2.26779860e-02, 2.92756706e-01, -5.30093908e-01,
          -1.25221983e-01, -1.48021865e+00, 1.07697570e+00,
          7.43124187e-01, -3.39881301e-01, 1.12142301e+00,
          -1.58275712e+00, -8.57754529e-01, 1.31908846e+00,
          -8.71243775e-01, 2.01214813e-02, -8.98465097e-01,
          4.95222330e-01, 4.37131256e-01, -3.38884257e-02,
          -7.35767305e-01, 7.35767365e-01 ]
      - [ -1.62747368e-01, -8.67537081e-01, -8.82595778e-01,
          1.06696859e-01, 6.93535566e-01, -1.00900805e+00,
          -2.56379098e-01, 9.22834814e-01, -6.67886110e-03,
          1.48343474e-01, 3.47948879e-01, -7.46105090e-02,
          2.03776315e-01, 7.14025021e-01, -2.65367026e-03,
          1.25049427e-01, -1.80618334e+00, 3.50983173e-01,
          4.15002972e-01, 1.04019701e+00, 7.27885544e-01,
          -1.01417673e+00, -7.93679774e-01, 1.07997060e+00,
          -6.98756933e-01, 2.02437386e-01, -1.34575689e+00,
          -1.09443344e-01, 1.05946589e+00, 3.95734131e-01,
          -7.69095004e-01, 7.69095004e-01 ]
      - [ -2.68237323e-01, -4.64849412e-01, -4.97618109e-01,
          -1.57853439e-01, 2.56688029e-01, 0., 2.45765120e-01,
          5.31463176e-02, 2.51226574e-01, 1.41997620e-01, 2.07534984e-01,
          -8.33898559e-02, 1.63843423e-01, 2.29380772e-01, 0.,
          -7.76347667e-02, -1.38855815e+00, 5.55599451e-01,
          5.17369330e-01, 3.15589428e-01, 4.03520674e-01,
          -9.34710205e-02, -4.43179905e-02, -2.65731752e-01,
          -1.38337106e-01, 3.93752724e-01, -4.76398706e-01,
          -3.56560141e-01, 7.86448359e-01, 4.65103984e-02,
          5.95297694e-01, -5.95297515e-01 ]
      - [ -2.76133325e-02, -5.66260815e-01, -8.38408232e-01,
          3.18760782e-01, 4.71145600e-01, -9.62727845e-01,
          3.01786691e-01, 1.11120725e+00, 5.23002148e-01,
          -3.17001671e-01, 4.42947596e-01, 6.21577621e-01,
          -6.63364232e-02, 1.13706745e-01, -9.51252580e-01,
          -1.74533442e-01, -1.11352158e+00, 9.21411753e-01,
          1.27052581e+00, -1.07841551e+00, 9.00197744e-01,
          -1.73228371e+00, -1.04492640e+00, 1.87701213e+00,
          -7.21926928e-01, 2.37209588e-01, -1.08545637e+00,
          8.93346369e-01, 2.53370762e-01, -6.12607338e-02,
          -5.34995437e-01, 5.34995556e-01 ]
      - [ -1.62202254e-01, -4.80558366e-01, -6.27985537e-01,
          2.55244970e-01, 3.44101936e-01, -8.98964107e-01,
          5.33442736e-01, 9.05927598e-01, 6.38381004e-01, 2.36314788e-01,
          -2.22180024e-01, 2.19072074e-01, -2.07700312e-01,
          2.71070600e-01, -6.55362487e-01, -1.48602813e-01,
          -1.01550102e+00, 8.84508133e-01, 8.71587932e-01,
          -7.40595222e-01, 6.12580240e-01, -8.72137249e-01,
          -9.72085178e-01, 1.23164177e+00, -1.43194914e+00,
          8.17302287e-01, -1.19762278e+00, 1.06662977e+00,
          9.38066065e-01, -8.07073295e-01, -3.51386577e-01,
          3.51386726e-01 ]
      - [ -2.03059107e-01, -6.60220683e-01, -8.65597129e-01,
          -3.10743451e-02, -9.42864791e-02, -5.26249766e-01,
          9.14455280e-02, 7.65133440e-01, -6.66243508e-02,
          -1.76189646e-01, 4.83305216e-01, 5.86789727e-01,
          1.34051904e-01, 3.39264162e-02, 7.38872364e-02, 4.54762042e-01,
          -1.75995100e+00, 2.36042619e-01, 8.27281058e-01,
          6.96627557e-01, -2.29918301e-01, -1.32873368e+00,
          -2.16959029e-01, 1.77561092e+00, 2.08758503e-01,
          1.82335190e-02, -1.48381603e+00, -4.00925241e-02,
          -7.48358145e-02, 1.59874439e+00, -1.27688766e-01,
          1.27689466e-01 ]
      - [ -3.90481979e-01, -9.40037727e-01, -7.39262521e-01,
          4.08981174e-01, 3.49327803e-01, -1.28495812e+00,
          1.19126511e+00, 7.62965500e-01, 2.25741521e-01, 4.15098332e-02,
          7.57779539e-01, 4.86578755e-02, 2.05179974e-02, 1.40391874e+00,
          -1.80234432e+00, -5.35806827e-02, -1.66080070e+00,
          1.01859999e+00, 1.07368886e+00, -4.31488693e-01,
          2.05105022e-01, -7.79566944e-01, -5.92562139e-01,
          1.16702402e+00, -9.71241236e-01, 1.66227424e+00,
          -2.26615024e+00, 1.62394905e+00, 1.69168782e+00,
          -1.04948759e+00, 7.05596089e-01, -7.05595613e-01 ]
      - [ -1.77936852e-01, 1.25300005e-01, 3.58000025e-02,
          9.84500051e-01, -5.82801938e-01, -9.18044388e-01,
          2.34564357e-02, 2.26990610e-01, -4.21018481e-01,
          -1.02141395e-01, -9.93628055e-02, -2.17253491e-01,
          -3.27387720e-01, 8.59200060e-01, 0., 5.90700030e-01,
          9.67663229e-01, -1.25039935e+00, -8.39775980e-01,
          1.12251246e+00, -1.50914514e+00, -3.56856585e-02,
          -4.01062779e-02, 1.58493698e+00, -6.04644001e-01,
          5.78427434e-01, -1.55348301e+00, 1.27074718e+00,
          8.65260325e-03, 2.74083734e-01, -1.09609222e+00,
          1.09609282e+00 ]
      - [ -1.39111400e-01, -1.18664980e+00, -1.37450731e+00,
          6.02397919e-01, 9.58498418e-01, -1.18479043e-01,
          7.06775963e-01, 8.41869116e-02, 6.33173048e-01,
          -2.16280475e-01, 5.56766428e-02, -2.50611097e-01,
          1.04739152e-01, 4.90727365e-01, -5.94254613e-01,
          2.43718103e-01, -2.09787035e+00, 1.63098204e+00,
          2.21958295e-01, 2.44929880e-01, 1.55729902e+00,
          -1.03068197e+00, -1.20630908e+00, 6.79691732e-01,
          4.18045707e-02, 1.19763255e+00, -4.85741735e-01,
          1.88534912e-02, 1.01235890e+00, -5.45470715e-01,
          4.27692860e-01, -4.27693695e-01 ]
      - [ -8.81837189e-01, -7.36316681e-01, -2.73925811e-01,
          1.54570580e+00, 1.30368483e+00, -8.89817119e-01,
          -3.84381890e-01, -1.99115321e-01, 1.25131202e+00,
          -2.78830320e-01, -5.56873441e-01, -7.03006387e-01,
          -7.00007737e-01, 7.21890807e-01, -8.95781815e-02,
          8.71096432e-01, -3.46373677e-01, -1.69629857e-01,
          -2.87398010e-01, 8.03401172e-01, 9.73151386e-01,
          -1.18307340e+00, -1.30475938e+00, 1.51468050e+00,
          -1.45743120e+00, 1.82485864e-01, -1.20428622e+00,
          6.88282549e-01, 9.94364560e-01, -4.78361398e-01,
          -2.10990286e+00, 2.10990262e+00 ]
      - [ -1.27578065e-01, 7.82876685e-02, 5.29593788e-03,
          1.79606527e-01, 4.25314516e-01, -1.01747966e+00,
          -2.60224819e-01, 4.79756266e-01, 2.65193313e-01,
          -3.57160002e-01, -3.63227308e-01, 1.62936240e-01,
          4.06987667e-02, 7.15519130e-01, -1.30294347e-02,
          -2.13909000e-01, 1.35612190e-01, -3.72633725e-01,
          -2.92257845e-01, 5.29279530e-01, 6.03628337e-01,
          -5.80832779e-01, -6.31185651e-01, 6.08389914e-01,
          -1.72219396e+00, -3.97079557e-01, -6.41455352e-01,
          4.04433936e-01, 6.64251328e-01, -4.27229404e-01,
          -1.99809182e+00, 1.99809194e+00 ]
      - [ -2.26754293e-01, 3.08170579e-02, 2.29901392e-02,
          6.32228792e-01, 2.15892881e-01, -9.62245584e-01,
          1.12451993e-01, 2.37846956e-01, 1.74988449e-01,
          -5.42613626e-01, -1.13915093e-01, -1.66800410e-01,
          -2.88646251e-01, 4.94421810e-01, 0., 3.79337281e-01,
          4.59281683e-01, -3.96053702e-01, -6.48340642e-01,
          5.85112870e-01, -1.24519438e-01, -9.79620278e-01,
          2.15270966e-02, 1.08261251e+00, -9.23577607e-01,
          -8.65791813e-02, -9.42289889e-01, 1.00551784e+00,
          -1.61849722e-01, 9.86218303e-02, -1.50632238e+00,
          1.50632250e+00 ]
      - [ 1.03086925e+00, 5.75433612e-01, -8.90405297e-01,
          -4.23986971e-01, 2.59473056e-01, -6.40985310e-01,
          -7.67058253e-01, 6.05573416e-01, 8.78160521e-02,
          -1.95794785e+00, 2.70729756e+00, -7.26984620e-01,
          -2.78951645e+00, 2.98593235e+00, 0., -5.55105582e-02,
          2.91910619e-01, -5.42997003e-01, 1.10181421e-01,
          1.40905574e-01, -1.41135943e+00, 9.62432742e-01,
          1.04983437e+00, -6.00909173e-01, 3.04167104e+00,
          -5.93850946e+00, 1.22479093e+00, -1.47587681e+00,
          -1.67371583e+00, 1.92480254e+00, -6.58694446e-01,
          6.58695579e-01 ]
      - [ 5.16075790e-01, -2.15729382e-02, -7.57260025e-01,
          9.95361060e-03, 1.48006901e-01, -8.65968108e-01,
          -3.24498534e-01, 1.80350751e-01, 1.10180832e-01,
          4.51218486e-01, -3.86658192e-01, -4.16849464e-01,
          4.19311583e-01, 5.97468853e-01, 4.67730522e-01,
          -1.27489895e-01, -2.52803594e-01, -8.62109065e-01,
          -2.42108196e-01, 1.35702097e+00, 1.19357514e+00,
          1.61146358e-01, -1.00068617e+00, -3.54034901e-01,
          -8.64040434e-01, 5.55985212e-01, -2.23458394e-01,
          -8.91454160e-01, 1.57817984e+00, -4.63266760e-01,
          -1.12590635e+00, 1.12590671e+00 ]
      - [ -3.72068852e-01, -1.91345894e+00, -4.55761671e-01,
          3.05223852e-01, -7.80604826e-03, -1.36724806e+00,
          2.45919451e-01, 7.63773769e-02, 8.67864937e-02,
          -1.60128459e-01, 1.14744925e+00, 3.08237597e-02,
          7.01199323e-02, 1.77795613e+00, 3.51639897e-01, 1.84175700e-01,
          -2.43606615e+00, -1.05275750e+00, 1.10493159e+00,
          2.38389134e+00, -2.22967744e-01, -1.66287875e+00,
          1.28924716e+00, 5.96600592e-01, -4.07692105e-01,
          4.61134821e-01, -3.66058254e+00, 1.71759173e-01,
          1.77473378e+00, 1.71408844e+00, -1.34007946e-01,
          1.34007558e-01 ]
      - [ 4.91946042e-01, -1.86062384e+00, -1.78768027e+00,
          1.09367393e-01, 3.77472222e-01, -1.49656570e+00,
          3.02285910e-01, 4.46032733e-01, 3.66399467e-01,
          -4.76351202e-01, 1.22340095e+00, 2.91733533e-01,
          1.83439031e-01, 1.58191824e+00, 3.24477226e-01,
          -7.72520900e-02, -3.04699063e+00, -3.70774895e-01,
          1.40518308e+00, 2.01258206e+00, 1.41925704e+00,
          -2.25162268e+00, 6.24841936e-02, 7.69882083e-01,
          1.41529039e-01, 1.18741438e-01, -2.48777127e+00,
          -9.29994226e-01, 1.65540504e+00, 1.76235950e+00,
          -4.47229922e-01, 4.47232574e-01 ]
      - [ -7.61500597e-02, -6.58423826e-02, 1.36426330e-01,
          2.65629321e-01, -3.25339079e-01, -1.72517374e-02,
          -5.41556358e-01, -2.31559992e-01, -2.90197760e-01,
          -5.80184519e-01, -1.74183473e-01, 5.87006629e-01,
          -5.10356069e-01, 4.39806372e-01, 9.54984248e-01,
          4.28768456e-01, 2.60063171e-01, -1.11570728e+00,
          -4.57558811e-01, 1.31320298e+00, -1.20204294e+00,
          -2.23472372e-01, 3.75670731e-01, 1.04984450e+00,
          1.61183253e-01, -1.36646760e+00, -4.84583259e-01,
          -3.71060669e-01, -9.40931797e-01, 1.79657614e+00,
          -1.31317616e+00, 1.31317556e+00 ]
      - [ 8.93962979e-01, -1.64984334e+00, -2.61598516e+00,
          1.23222984e-01, 5.47691524e-01, -2.51227760e+00,
          -2.58215725e-01, 1.13905096e+00, 1.47194892e-01,
          -5.68536401e-01, 1.93300545e+00, 1.91571280e-01,
          2.94637233e-01, 1.93771577e+00, 5.30027568e-01,
          -1.33221909e-01, -3.24864221e+00, -1.08375061e+00,
          1.70323503e+00, 2.62915778e+00, 1.88348651e+00,
          -2.79294181e+00, -4.11167890e-01, 1.32062352e+00,
          1.81468993e-01, -4.08892035e-01, -2.72046614e+00,
          -1.61192691e+00, 1.81101108e+00, 2.52138233e+00,
          -1.40602422e+00, 1.40602922e+00 ]
      - [ 1.27609050e+00, -5.05871153e+00, -7.45796338e-02,
          -1.13496907e-01, 5.75426936e-01, 3.08410645e-01,
          -2.90732694e+00, 1.51972246e+00, 6.25586033e-01,
          2.76063466e+00, -1.07021427e+00, 6.47113144e-01,
          -2.16786936e-01, -2.34420151e-02, 9.11905885e-01,
          8.39668691e-01, -3.97069764e+00, -5.03767371e-01,
          2.96311975e+00, 1.51134384e+00, 2.26031709e+00,
          -2.01310802e+00, -3.14021492e+00, 2.89300752e+00,
          1.35395503e+00, -4.76976633e-01, -2.89878392e+00,
          -1.57568014e+00, 3.14599061e+00, 1.32847333e+00,
          -9.08496022e-01, 9.08501983e-01 ]
      - [ 6.72636688e-01, 7.29671568e-02, -3.99110258e-01,
          -5.34869313e-01, -1.02154024e-01, -8.67438853e-01,
          -8.66233885e-01, 8.13617229e-01, -3.28285247e-01,
          -7.61803985e-02, -1.18220150e-01, 8.13617229e-01,
          5.46517253e-01, 6.80134237e-01, 3.23063731e-01,
          -6.30061328e-01, -1.88375875e-01, -1.02220976e+00,
          2.90931553e-01, 9.19653893e-01, 7.88714826e-01,
          -1.90517858e-01, -1.06050038e+00, 4.62303907e-01,
          -9.43083346e-01, -9.30766284e-01, -2.23989084e-01,
          -9.86596227e-01, 8.22186053e-01, 3.88399661e-01,
          -1.92807329e+00, 1.92807329e+00 ]
      - [ -5.50573952e-02, -1.36048841e+00, -1.40769625e+00,
          -4.10288036e-01, 5.03294110e-01, -6.85472429e-01,
          -5.66225171e-01, 5.97486317e-01, 7.04371929e-01,
          1.95093706e-01, 1.91435069e-01, 4.61422920e-01, 4.56004560e-01,
          7.34715044e-01, 6.74950898e-01, -3.35468762e-02,
          -3.23353004e+00, -1.50917083e-01, 1.55232382e+00,
          1.83212352e+00, 1.60861361e+00, -1.11615205e+00,
          -1.10753524e+00, 6.15074337e-01, -5.82641721e-01,
          -3.25414777e-01, -1.59772444e+00, -1.78672278e+00,
          2.09018517e+00, 1.29426193e+00, -8.65168691e-01,
          8.65170240e-01 ]
      - [ 3.94180655e-01, -1.21846211e+00, -1.17147577e+00,
          3.81715596e-01, -3.40634078e-01, -2.88310915e-01,
          -2.38972887e-01, -1.65142313e-01, -2.64014244e-01,
          3.51787627e-01, 2.85150707e-01, -3.25882614e-01,
          2.33375072e-01, 1.04188812e+00, 1.00508058e+00, 3.19716632e-01,
          -1.61404157e+00, -1.03306031e+00, 4.70414832e-02,
          2.60006022e+00, 2.29074229e-02, -1.13097176e-01,
          -1.20217308e-01, 2.10407212e-01, 7.10737050e-01,
          7.27905393e-01, -1.45322657e+00, -1.19387519e+00,
          1.36303639e+00, 1.28406537e+00, 1.09654471e-01,
          -1.09653309e-01 ]
      - [ 5.53690493e-02, -1.49011862e+00, -1.52612627e+00,
          -5.66529691e-01, 7.39344537e-01, -4.41542864e-01,
          -6.36802837e-02, 1.29960194e-01, 9.22810197e-01,
          2.35823840e-02, 6.61225438e-01, -4.30458374e-02,
          4.55368936e-01, 5.35835028e-01, 2.54766077e-01, 3.52781832e-01,
          -3.52740526e+00, 3.64081800e-01, 1.56457245e+00,
          1.59875190e+00, 2.17289305e+00, -1.37224388e+00,
          -6.73814952e-01, -1.26833409e-01, 6.27833426e-01,
          -1.51258752e-01, -1.13694787e+00, -2.02637577e+00,
          1.93759620e+00, 1.22572803e+00, 1.79584727e-01,
          -1.79583475e-01 ]
      - [ -1.69095725e-01, -7.86913216e-01, -8.02549839e-01,
          -3.15393299e-01, 1.21291712e-01, -3.17501307e-01,
          -3.15298498e-01, 6.82022646e-02, 1.56657577e-01,
          1.47283822e-01, 1.76981658e-01, 3.09138559e-02, 1.25745222e-01,
          8.68972838e-01, 9.49325502e-01, 6.13774657e-02,
          -2.07395220e+00, -4.43305850e-01, 5.11837006e-01,
          2.00542092e+00, 2.34598994e-01, -8.81578103e-02,
          8.45891982e-03, -1.54899821e-01, -2.48237997e-01,
          -3.57662737e-01, -1.15221846e+00, -1.36503923e+00,
          1.29865932e+00, 1.21859848e+00, -3.08534324e-01,
          3.08534622e-01 ]
      - [ -1.19962707e-01, -5.01845717e-01, -5.27903557e-01,
          -1.92754358e-01, -1.09664910e-01, -4.04897779e-01,
          -3.66714656e-01, 3.24534059e-01, -9.57621336e-02,
          7.94319510e-02, 9.40389410e-02, 5.18417716e-01,
          -3.93762311e-04, 4.36091632e-01, 5.54914594e-01,
          3.12470764e-01, -1.34246659e+00, -5.56743383e-01,
          5.96126616e-01, 1.30308318e+00, -3.25783372e-01,
          -3.91219825e-01, -2.45664716e-01, 9.62668180e-01,
          -1.18350856e-01, -4.80430752e-01, -1.13637125e+00,
          -7.62838483e-01, 4.19367731e-01, 1.47984207e+00,
          -5.98141611e-01, 5.98141432e-01 ]
      - [ 1.11036050e+00, -2.44317102e+00, -2.24591827e+00,
          8.63980412e-01, -8.96881241e-03, -6.30130544e-02,
          -9.74634662e-03, 4.39445019e-01, 9.95520875e-03,
          8.92853975e-01, -4.53701228e-01, -5.10018058e-02,
          4.19163942e-01, 2.04598165e+00, -1.61858335e-01,
          -3.44361573e-01, -2.71474862e+00, 3.57716799e-01,
          3.98106098e-01, 1.95892549e+00, 1.53051066e+00, 4.32651848e-01,
          -2.87122369e+00, 9.08061981e-01, 2.49284387e-01,
          2.16625214e+00, -1.40479255e+00, -9.52238858e-01,
          3.36795402e+00, -1.01092327e+00, 3.66393358e-01,
          -3.66390437e-01 ]
      - [ -7.70566985e-02, -9.60720181e-01, -8.46449912e-01,
          -2.61455894e-01, 7.67451704e-01, -7.62174129e-01,
          -2.90351659e-01, 9.10289466e-01, 6.31554902e-01,
          -7.41277561e-02, 3.23448896e-01, 6.31554902e-01,
          -2.47264534e-01, 2.25294918e-01, 3.34405631e-01,
          -3.04399669e-01, -2.14568257e+00, 6.25215411e-01,
          1.51243091e+00, 8.03616084e-03, 1.07468522e+00,
          -1.57172716e+00, -4.78947043e-01, 9.75989044e-01,
          -8.20181370e-01, -8.73199821e-01, -1.03249907e+00,
          -4.87967998e-01, 5.35457611e-01, 9.85009730e-01,
          -8.03204834e-01, 8.03205192e-01 ]
      - [ -1.64633766e-01, -5.95881581e-01, -5.13536215e-01,
          -2.07590476e-01, 4.52710927e-01, -5.83388209e-01,
          -6.54580593e-01, 3.91661137e-01, 4.67994772e-02,
          2.67801583e-01, 2.35089660e-01, 1.85403377e-02, 1.30552605e-01,
          5.21067679e-01, 6.39123082e-01, 1.62645057e-02,
          -1.48164201e+00, -3.93596768e-01, 5.68231225e-01,
          1.30700779e+00, 4.65429276e-01, -3.90400529e-01,
          -2.93904185e-01, 2.18875617e-01, -4.96667683e-01,
          -4.63816881e-01, -8.91192675e-01, -9.84046221e-01,
          9.66221452e-01, 9.09017742e-01, -7.35077620e-01,
          7.35077620e-01 ]
      - [ -2.93401778e-01, -3.97183508e-01, -3.97183508e-01,
          -2.32432857e-01, 1.97679520e-01, 3.95359024e-02,
          3.95359024e-02, -6.43521249e-02, 2.02621520e-01,
          1.53201625e-01, 1.53201625e-01, -6.43521249e-02,
          1.53201625e-01, 2.81693310e-01, 2.81693310e-01,
          -5.34585044e-02, -1.32020152e+00, 2.12399200e-01,
          4.44672704e-01, 6.63129747e-01, 2.60100871e-01, 7.72473440e-02,
          7.72473440e-02, -4.14595634e-01, -1.54122755e-01,
          1.13506332e-01, -4.53369886e-01, -6.54432595e-01,
          7.90718079e-01, 3.17084372e-01, 3.85475069e-01,
          -3.85475069e-01 ]
      - [ 8.41193870e-02, -1.02522671e+00, -9.14280951e-01,
          -2.26486906e-01, 5.17567754e-01, -9.81783092e-01,
          -5.58520615e-01, 1.23188519e+00, 5.58616638e-01,
          1.28432915e-01, 5.32220423e-01, 9.77455974e-01,
          -3.07901978e-01, 1.16564743e-01, 2.14138344e-01,
          -3.46800894e-01, -2.08187532e+00, 2.09149465e-01,
          2.19672608e+00, -3.23999465e-01, 8.52401733e-01,
          -1.76201224e+00, -7.26442695e-01, 1.63605356e+00,
          -7.12244093e-01, -9.64476466e-01, -1.40532267e+00,
          -4.67403293e-01, 4.95712608e-01, 1.37701380e+00,
          -8.79650712e-01, 8.79650533e-01 ]
      - [ -1.77726880e-01, -9.43459451e-01, -8.22113752e-01,
          -4.63143811e-02, 4.46385622e-01, -1.05749393e+00,
          9.67983902e-02, 1.08124769e+00, 9.87948596e-01, 6.94818735e-01,
          -5.45365393e-01, 5.03541350e-01, -5.40174484e-01,
          4.09492105e-01, 2.81174481e-01, -3.68758649e-01,
          -1.98961461e+00, 5.66937983e-01, 1.64094305e+00,
          -2.18266591e-01, 7.16433048e-01, -8.96642804e-01,
          -9.89506423e-01, 1.16971624e+00, -2.14934444e+00,
          2.05128461e-01, -1.73229456e+00, 3.09617817e-01,
          1.55208504e+00, -1.29408017e-01, -8.11242342e-01,
          8.11240315e-01 ]
      - [ -1.13739640e-01, -6.23988509e-01, -6.23988509e-01,
          -3.24951470e-01, -4.80677597e-02, -1.64363742e-01,
          -2.82185793e-01, 4.30791795e-01, -4.69692238e-02,
          3.91008779e-02, 1.75191343e-01, 5.57772100e-01, 5.76747768e-02,
          -1.24691159e-01, 7.20566869e-01, 3.71848077e-01,
          -1.68666804e+00, -6.38255551e-02, 7.25095212e-01,
          1.02539849e+00, -1.51101768e-01, -8.73942554e-01,
          -1.04159750e-02, 1.03546047e+00, 2.68935919e-01,
          -5.10361612e-01, -9.50159729e-01, -8.00333917e-01,
          -7.48848766e-02, 1.82537842e+00, -2.32257366e-01,
          2.32258067e-01 ]
      - [ -1.70596734e-01, -2.14069724e+00, -8.53137970e-01,
          -2.51661181e-01, 4.35345054e-01, -2.03769255e+00,
          2.60206282e-01, 4.35345054e-01, 3.88769776e-01, 6.14025176e-01,
          5.94317257e-01, 3.69061857e-01, 1.07779326e-02, 2.69428992e+00,
          -1.65207908e-01, -1.83145255e-01, -3.41609311e+00,
          -9.06796575e-01, 1.96617460e+00, 2.35671377e+00,
          6.64296865e-01, -8.70074153e-01, -1.63822100e-01,
          3.69600475e-01, -1.79711807e+00, 6.33348346e-01,
          -3.91364217e+00, -4.09247547e-01, 3.70786214e+00,
          6.15025342e-01, -5.69144249e-01, 5.69145977e-01 ]
      - [ -1.54747680e-01, 9.42500457e-02, 1.31950051e-01,
          4.71250206e-01, -6.95673943e-01, -5.12897849e-01,
          -5.22076130e-01, 1.33331761e-01, -4.49636787e-01,
          9.99741107e-02, -3.24694142e-02, -2.93013990e-01,
          -3.62591237e-01, 7.54000366e-01, 9.23650384e-01,
          4.14700180e-01, 5.42702556e-01, -1.59731615e+00,
          -6.75145686e-01, 1.72975957e+00, -1.66264951e+00,
          4.35326785e-01, 5.01054883e-01, 7.26268232e-01,
          -2.85414696e-01, -3.13442945e-01, -1.26906931e+00,
          2.14455888e-01, 4.17466424e-02, 1.01286733e+00,
          -9.67469215e-01, 9.67469215e-01 ]
      - [ -3.44998270e-01, -1.79037797e+00, -1.64418364e+00,
          4.27049339e-01, 1.28449070e+00, 1.15001649e-01, 8.54398757e-02,
          -1.70781359e-01, 8.21281433e-01, 2.30066404e-01,
          1.18371263e-01, -1.60845695e-03, -3.12170088e-01,
          3.94123971e-01, 3.94123971e-01, 3.94170821e-01,
          -3.35251069e+00, 1.31415081e+00, 1.16811097e+00,
          8.70248616e-01, 1.44860363e+00, -1.05118597e+00,
          -1.04624844e+00, 6.48829937e-01, 2.82545596e-01,
          4.30385709e-01, -7.35883951e-01, -1.30247569e+00,
          1.13330162e+00, 9.05058086e-01, 5.48879027e-01,
          -5.48881352e-01 ]
      - [ -5.58582425e-01, -7.46001661e-01, 2.31517762e-01,
          8.26849103e-01, 1.17963815e+00, -7.16602623e-01,
          -1.60959959e+00, 3.67489457e-03, 1.22006190e+00,
          4.52010810e-01, -4.07912254e-01, -1.02529299e+00,
          -9.33420777e-01, 1.76394477e-01, 1.17963803e+00,
          7.27627277e-01, -2.46217355e-01, -1.14288902e+00,
          2.38868028e-01, 1.15023887e+00, 9.07696962e-01,
          -8.34198833e-01, -6.06356084e-01, 5.32858431e-01,
          -9.55470026e-01, -1.26416039e+00, -8.41548860e-01,
          -5.47558010e-01, 9.15046751e-01, 4.74060357e-01,
          -2.28210378e+00, 2.28210282e+00 ]
      - [ -1.61851823e-01, 4.56037484e-02, 8.77250284e-02,
          -1.56711057e-01, 2.99658060e-01, -6.34969950e-01,
          -7.18051672e-01, 2.06792265e-01, 1.57208562e-01,
          -1.35816291e-01, -2.31003687e-01, 2.73124993e-01,
          1.69148371e-02, 5.77094734e-01, 6.93674445e-01,
          -3.19392055e-01, -1.85234070e-01, -8.46571445e-01,
          6.35135844e-02, 9.68291938e-01, 3.11929673e-01,
          -1.48087740e-01, -1.67656049e-01, 3.81420390e-03,
          -1.34721756e+00, -9.93664205e-01, -4.51559961e-01,
          -5.80245554e-01, 6.15401983e-01, 4.16403890e-01,
          -1.71984172e+00, 1.71984172e+00 ]
      - [ -2.62127936e-01, 1.89523809e-02, 9.49145332e-02,
          3.38980466e-01, 1.65178254e-01, -7.76182532e-01,
          -3.52844954e-01, 1.16334558e-01, 1.20379433e-01,
          -4.06038851e-01, -5.46184517e-02, -1.03462189e-01,
          -3.43483269e-01, 4.81314123e-01, 6.64401710e-01,
          2.98302829e-01, 1.90719381e-01, -8.47514629e-01,
          -4.43739921e-01, 1.10053539e+00, -3.20053518e-01,
          -6.81954801e-01, 3.51852804e-01, 6.50155723e-01,
          -7.94625998e-01, -7.63386667e-01, -8.54179919e-01,
          1.97384536e-01, -1.47828609e-01, 8.04624081e-01,
          -1.58968496e+00, 1.58968472e+00 ]
      - [ 1.80730060e-01, 1.42745301e-01, -1.75522417e-01,
          -4.98885930e-01, 4.84451875e-02, 9.68267173e-02,
          -9.61999536e-01, 3.62607129e-02, 7.44548813e-03,
          -4.17033732e-01, 6.58895910e-01, 6.86369650e-03,
          -8.96116853e-01, 8.19139600e-01, 1.16327536e+00,
          -2.11069673e-01, -3.50933075e-01, -7.80466855e-01,
          2.56171465e-01, 8.75228226e-01, -6.59496129e-01,
          6.41677916e-01, 6.84649289e-01, -6.66831255e-01,
          7.25382924e-01, -2.77403569e+00, 4.68747139e-01,
          -1.60014713e+00, -4.86565381e-01, 1.61796558e+00,
          -6.23310864e-01, 6.23311043e-01 ]
      - [ -5.29703736e-01, -7.73428857e-01, 9.14702654e-01,
          2.08596632e-01, -6.56435609e-01, -4.09174174e-01,
          3.84692222e-01, -3.23968567e-02, -4.00654286e-01,
          -3.43343586e-01, 4.57051456e-01, 1.29273641e+00,
          -2.71011204e-01, -9.39302444e-02, -1.94458336e-01,
          4.46757406e-01, -1.79833204e-01, -7.13314116e-01,
          1.00579000e+00, -1.12642296e-01, -1.85780478e+00,
          -1.61987674e+00, 1.56198835e+00, 1.91569364e+00,
          -3.50687094e-02, -2.10659150e-02, -2.36874223e+00,
          1.47559464e+00, -1.10893929e+00, 2.00208712e+00,
          8.92258659e-02, -8.92259330e-02 ]
      - [ -3.80773365e-01, -6.63491130e-01, 9.28716242e-01,
          2.32945204e-01, -5.87849975e-01, -7.74456322e-01,
          -1.45858824e-01, -7.46168867e-02, -3.22921097e-01,
          -4.51848686e-01, 1.43651378e+00, 1.22130251e+00,
          -2.66541362e-01, -1.54922292e-01, -4.63332027e-01,
          4.67133731e-01, 1.17396891e-01, -1.58278227e+00,
          1.88304687e+00, -4.17661935e-01, -1.55808568e+00,
          -2.04471874e+00, 1.75603890e+00, 1.84676468e+00,
          7.48418152e-01, -6.31303608e-01, -2.40657091e+00,
          9.41186011e-01, -1.19623351e+00, 2.66161776e+00,
          6.43506497e-02, -6.43510669e-02 ]
      - [ -4.69715474e-03, 3.42530198e-02, 5.18413782e-01,
          2.02444673e-01, -5.38699329e-01, 4.76185083e-01,
          4.37313229e-01, -4.81976271e-01, -3.23472619e-01,
          -6.81400239e-01, 1.71946689e-01, 3.56821924e-01,
          -4.13281888e-01, -2.41021112e-01, 2.13145852e-01,
          2.74024159e-01, 7.50414312e-01, -1.07177280e-01,
          -4.76104200e-01, -1.67132989e-01, -1.28015089e+00,
          -4.11983460e-01, 1.34081948e+00, 3.51314545e-01,
          9.17458832e-01, -4.54924345e-01, -3.29584219e-02,
          6.76195562e-01, -1.65917587e+00, 1.01593852e+00,
          4.04044718e-01, -4.04045254e-01 ]
      - [ -1.32830083e-01, -3.83241549e-02, 1.87761772e+00,
          7.37817168e-01, -4.12094563e-01, 3.72214317e-01,
          -3.06333810e-01, -1.05228150e+00, -4.43751782e-01,
          -1.14485109e+00, 1.65916216e+00, 1.01651214e-01,
          -2.20125586e-01, -8.70053947e-01, -6.50746644e-01,
          5.22930205e-01, 2.44428062e+00, -1.39849520e+00,
          1.72210485e-01, -1.21799600e+00, -1.20880210e+00,
          -1.68101478e+00, 2.57969904e+00, 3.10117096e-01,
          2.42147684e+00, -9.33493614e-01, -2.11034715e-01,
          1.25681996e+00, -2.67878270e+00, 1.63299680e+00,
          5.80191910e-01, -5.80192626e-01 ]
      - [ -2.35101968e-01, -6.58157587e-01, 1.13458300e+00,
          1.34452924e-01, -5.39906144e-01, 6.72492623e-01,
          3.13027017e-02, 5.82261942e-02, -1.70301586e-01,
          -3.61706138e-01, 3.06898773e-01, 1.11411548e+00,
          -4.54437375e-01, -1.08778560e+00, -2.73353845e-01,
          3.28678310e-01, 3.75776440e-01, 2.22115576e-01, 8.89006615e-01,
          -1.48689866e+00, -1.39974701e+00, -1.43515658e+00,
          1.19943047e+00, 1.63547277e+00, 1.07296789e+00,
          -6.50387824e-01, -7.60672987e-01, 1.35856497e+00,
          -2.07423043e+00, 1.47633827e+00, 6.48988008e-01,
          -6.48988664e-01 ]
      - [ 0., 5.61931372e-01, 1.89989138e+00, -1.67849910e+00,
          -2.12212229e+00, -1.04366183e+00, -1.26611638e+00,
          2.59662390e-01, -6.22873366e-01, -1.61021978e-01,
          1.91260803e+00, 3.35876656e+00, 0., 8.46875366e-03,
          -4.94845435e-02, -1.05754852e+00, 7.83324003e-01,
          -4.17223740e+00, 4.48747969e+00, -1.09856451e+00,
          -2.74499559e+00, -6.34283543e-01, 2.49690032e+00,
          8.82381380e-01, -1.88602448e-01, -3.10563707e+00,
          -2.60385299e+00, -7.85060406e-01, -7.75426924e-01,
          4.16434336e+00, -5.58189094e-01, 5.58193445e-01 ]
      - [ -4.06201750e-01, -1.11766541e+00, 7.56541491e-01,
          2.99484223e-01, 2.11143911e-01, 6.84129059e-01,
          -2.28860483e-01, -5.38408875e-01, 4.13654536e-01,
          -1.03668058e+00, 1.37913764e+00, 8.38182211e-01,
          -1.01550438e-01, -9.69866037e-01, -7.88579047e-01,
          6.05539441e-01, -4.67841476e-01, 1.28004119e-01,
          1.59429383e+00, -1.25445604e+00, 1.17046274e-01,
          -2.44008303e+00, 1.11823952e+00, 1.20479691e+00,
          2.26260448e+00, -1.06760716e+00, -6.28594220e-01,
          2.88756341e-01, -1.69444239e+00, 2.03428030e+00,
          7.97725677e-01, -7.97725916e-01 ]
      - [ -2.99941134e-02, -9.05778527e-01, 1.44519538e-01,
          6.47593498e-01, -3.59444678e-01, 6.98108613e-01,
          -1.86342210e-01, -5.67878127e-01, -7.73893833e-01,
          -2.58294255e-01, 8.35898638e-01, 1.77598462e-01,
          -2.99941134e-02, -2.28600502e-01, 9.53239724e-02,
          7.41177559e-01, -1.43659666e-01, -4.15556252e-01,
          -1.86909568e-02, 5.77906907e-01, -1.19332671e+00,
          -6.94564760e-01, 8.89399946e-01, 9.98491406e-01,
          2.24519086e+00, 1.72962785e-01, -5.97108603e-01,
          3.78927216e-02, -1.29078269e+00, 1.84999883e+00,
          1.08937061e+00, -1.08937192e+00 ]
      - [ -2.41474092e-01, -9.09814477e-01, 4.88672286e-01,
          -7.67996721e-03, 5.51861286e-01, 6.82201028e-01,
          9.68470052e-02, -7.15052485e-01, 3.44972074e-01,
          -1.11806774e+00, 1.17223942e+00, 3.36906224e-01, 0.,
          -7.22970724e-01, -7.47753978e-01, 7.89114177e-01,
          -6.70296073e-01, 6.15857184e-01, 7.36050367e-01,
          -6.81610644e-01, 6.55359268e-01, -2.06865191e+00,
          1.01000464e+00, 4.03288126e-01, 2.40208077e+00,
          -1.02890086e+00, 8.27736929e-02, -1.37213126e-01,
          -1.49606645e+00, 1.55050635e+00, 8.33219767e-01,
          -8.33219230e-01 ]
      - [ -5.45921803e-01, -1.00513840e+00, 4.07835722e-01,
          -5.61978072e-02, 1.92678258e-01, 5.71612239e-01,
          -6.10147893e-01, -5.23442686e-01, -4.49582666e-01,
          -4.59216565e-01, 1.05651915e+00, 5.61978281e-01,
          -2.18368709e-01, -5.78034818e-02, 3.80539626e-01,
          7.54656613e-01, -1.19942236e+00, -3.69299799e-01,
          7.09698319e-01, 8.59023988e-01, -1.02119493e+00,
          -9.50546265e-01, 1.23474658e+00, 7.36994386e-01,
          1.83686650e+00, -1.34393108e+00, -7.86769688e-01,
          -7.81952798e-01, -1.18497133e+00, 2.75369382e+00,
          5.58766782e-01, -5.58767617e-01 ]
      - [ -2.68990844e-01, -2.43075535e-01, 3.38655800e-01,
          1.33580854e-02, -3.69455457e-01, 8.91188439e-03,
          -3.81325722e-01, -1.74187690e-01, -3.80479038e-01,
          -5.92764057e-02, 5.97159684e-01, 9.07847226e-01,
          -2.86843538e-01, -6.49288222e-02, 8.02814439e-02,
          2.82348931e-01, -1.60052583e-01, -9.16057110e-01,
          1.06525147e+00, 1.08580031e-02, -1.30576885e+00,
          -3.58368814e-01, 6.34771287e-01, 1.02936649e+00,
          6.19429767e-01, -7.14087486e-01, -8.72609913e-01,
          -2.03499600e-01, -7.91527808e-01, 1.86763752e+00,
          1.65469259e-01, -1.65469676e-01 ]
      - [ -1.30527943e-01, -1.50398052e+00, 5.03199339e-01,
          9.34021235e-01, -6.43160582e-01, 1.54350781e+00,
          1.31456241e-01, -3.67335767e-01, -5.60211122e-01,
          -3.77771795e-01, 4.44941342e-01, 6.48291171e-01,
          -1.30527943e-01, -4.95595783e-01, -8.68885875e-01,
          8.72579813e-01, -1.97287917e-01, 6.64467752e-01,
          1.55249596e-01, -6.22429550e-01, -1.46442747e+00,
          -8.33840132e-01, 2.10710675e-01, 2.08755660e+00,
          2.73050117e+00, 5.57177722e-01, -7.34161437e-01,
          1.20134103e+00, -1.56410623e+00, 1.09692585e+00,
          1.74213362e+00, -1.74213386e+00 ]
      - [ -6.71143234e-01, -1.43996584e+00, -5.83744757e-02,
          -7.64124244e-02, 1.78472161e-01, -2.98208594e-01,
          4.90137726e-01, -4.24278490e-02, -2.92392820e-03,
          -9.99844372e-01, 9.32547629e-01, 7.65416145e-01, 0.,
          3.39846164e-02, 5.09049952e-01, 6.79692328e-01,
          -2.24589610e+00, 3.27973783e-01, 6.95195675e-01,
          1.22272682e+00, -4.95595068e-01, -2.70403433e+00,
          1.87336135e+00, 1.32626808e+00, 6.42888665e-01,
          -5.86118996e-01, -2.23084497e+00, 3.12923163e-01,
          -9.68783796e-01, 2.88670611e+00, 1.24632180e-01,
          -1.24632053e-01 ]
      - [ -3.80967617e-01, -9.80905473e-01, 1.04998589e+00,
          1.46413460e-01, 2.50254005e-01, -1.32067537e+00,
          -8.65743697e-01, -1.08032572e+00, 1.07449102e+00,
          -4.37261105e-01, 1.83473825e+00, 1.11106348e+00,
          -6.09259605e-01, -6.82377666e-02, 7.15313256e-01,
          -4.38883454e-01, -1.65473431e-01, -3.01649022e+00,
          3.58303189e+00, -4.01067674e-01, 3.34517807e-01,
          -2.80708027e+00, 2.73429441e+00, -2.61731893e-01,
          -3.05787057e-01, -1.76584995e+00, -2.43229485e+00,
          -7.49669015e-01, -4.02675718e-02, 3.22223258e+00,
          -7.88939714e-01, 7.88941681e-01 ]
      - [ -4.51668411e-01, -3.86807501e-01, -1.31996766e-01,
          -2.44349286e-01, 2.31646121e-01, 3.19671661e-01,
          1.06557213e-01, -9.95829329e-02, 1.15823060e-01,
          6.48609176e-02, 3.38203311e-01, 7.64681175e-02, 0.,
          9.26584471e-03, 8.33926052e-02, -3.14839371e-02,
          -1.21482182e+00, 5.58292091e-01, 5.95355451e-01,
          6.11745045e-02, -1.04199246e-01, 6.99088909e-03,
          3.96156371e-01, -2.98948050e-01, 1.74722657e-01,
          -7.29311705e-02, -2.87158161e-01, -3.69371831e-01,
          1.89949825e-01, 4.66580153e-01, 8.29293072e-01,
          -8.29293072e-01 ]
      - [ -1.88268289e-01, -4.82431084e-01, 5.52833974e-01,
          3.02046269e-01, 1.39141396e-01, -2.36614555e-01,
          -2.27067113e-01, 1.39123812e-01, 4.38053459e-01,
          -1.48758501e-01, 9.43970263e-01, 9.78999972e-01,
          -3.76536578e-01, -1.20616651e+00, -7.79228270e-01,
          1.50901750e-01, 1.84180915e-01, -1.85415998e-01,
          2.21226525e+00, -2.21102977e+00, 1.23900073e-02,
          -2.07397079e+00, 4.90509093e-01, 1.57107186e+00,
          6.69988930e-01, -4.50315535e-01, -7.68172622e-01,
          7.66936958e-01, -1.29340827e+00, 1.29464364e+00,
          3.31529796e-01, -3.31529766e-01 ]
      - [ -6.27735078e-01, -5.37904739e-01, 5.23778796e-01,
          2.65542772e-02, -1.55051559e-01, -7.90046036e-01,
          5.90218365e-01, 5.21410048e-01, 1.82676837e-01,
          -3.37432250e-02, 1.65771425e-01, 1.19472289e+00,
          -5.13702333e-01, -5.11675417e-01, -1.21204257e-01,
          8.59299228e-02, -6.15306735e-01, 1.66530833e-01,
          1.50942791e+00, -1.06065214e+00, -1.11381209e+00,
          -1.87336957e+00, 1.15856445e+00, 1.82861722e+00,
          -1.16607964e+00, 6.93272278e-02, -2.11073732e+00,
          1.66196144e+00, -8.76444161e-01, 1.32522035e+00,
          -6.77990839e-02, 6.77990392e-02 ]
      - [ -2.60789663e-01, -2.60767400e-01, 5.98966479e-02,
          -5.96284941e-02, -1.74389407e-01, -3.21942456e-02,
          -8.84526148e-02, 1.42386511e-01, -2.29785457e-01,
          -3.03854972e-01, 6.42612100e-01, 5.15477359e-01,
          -1.23202100e-01, -2.06395298e-01, 1.30976826e-01,
          2.48110235e-01, -5.21288872e-01, -1.52649790e-01,
          6.24449074e-01, 4.94896285e-02, -7.88166642e-01,
          -8.03211868e-01, 7.45032966e-01, 8.46345603e-01,
          5.97738504e-01, -5.75138152e-01, -7.28140712e-01,
          5.42020611e-02, -8.63237858e-01, 1.53717661e+00,
          2.18110323e-01, -2.18110204e-01 ]
      - [ -6.33374333e-01, -4.34872955e-01, 6.66403413e-01,
          -5.37820570e-02, 1.48579851e-01, 4.10831332e-01,
          2.66581774e-01, -4.60610129e-02, -2.47953162e-01,
          -1.57077163e-01, 7.70740151e-01, 5.45112848e-01,
          -5.33367813e-01, -1.92291856e-01, -6.30555511e-01,
          1.21086285e-01, -4.55625832e-01, 7.79932022e-01,
          9.10822749e-01, -1.23512912e+00, -1.26611543e+00,
          -3.73410612e-01, 1.07316983e+00, 5.66356122e-01,
          6.69283569e-01, -4.77645308e-01, -5.08836210e-01,
          8.33142042e-01, -1.13069010e+00, 8.06383789e-01,
          1.29107594e+00, -1.29107618e+00 ]
      - [ -5.04017532e-01, 2.92846598e-02, 6.19703293e-01,
          2.83902645e-01, -5.83334506e-01, 2.57936358e-01,
          -1.73632920e-01, -1.38650596e-01, -3.45949739e-01,
          -2.31682718e-01, 3.68813545e-01, 2.63313323e-01,
          -4.85004306e-01, 3.21551971e-02, 2.37513408e-01,
          3.69649827e-01, 4.28873092e-01, -6.37681663e-01,
          5.44945635e-02, 1.54314116e-01, -1.91830611e+00,
          8.76935795e-02, 1.05239725e+00, 7.78215289e-01, 4.92382318e-01,
          -6.06417239e-01, -8.00130963e-01, 5.91322541e-01,
          -1.03048158e+00, 1.23929000e+00, 2.21434221e-01,
          -2.21434548e-01 ]
      - [ -4.76037234e-01, -1.48464763e+00, -2.48970181e-01,
          3.11031789e-01, 9.51313674e-01, 1.22574949e+00, 3.51387501e-01,
          -8.38784516e-01, 2.59095699e-01, -1.07071912e+00,
          1.32014528e-01, 2.26898193e-01, -1.45721480e-01,
          -1.33370325e-01, 2.17422575e-01, 7.23336697e-01,
          -1.89862311e+00, 1.68966627e+00, -4.52710688e-01,
          6.61667466e-01, 5.88650644e-01, -1.46298778e+00,
          4.51854646e-01, 4.22482282e-01, 1.60506380e+00,
          -5.54021597e-01, 2.16378227e-01, -4.25335318e-01,
          -1.09071517e+00, 1.29967213e+00, 6.38431966e-01,
          -6.38433218e-01 ]
      - [ -1.25455511e+00, -5.72181344e-01, 1.41203475e+00,
          4.61815387e-01, 5.41835949e-02, -2.35642418e-01,
          -4.31809783e-01, -5.56597650e-01, 8.63183677e-01,
          -2.41494328e-01, 9.36867416e-01, 4.47325915e-01,
          -1.24312019e+00, -6.13994837e-01, 3.70760113e-01,
          6.03224456e-01, 4.71137241e-02, -1.16986609e+00,
          2.00588298e+00, -8.83130550e-01, -1.58030796e+00,
          -1.66331315e+00, 2.28785300e+00, 9.55768168e-01,
          4.98948395e-02, -1.45460892e+00, -2.00819516e+00,
          8.85442793e-01, -1.23542571e+00, 2.35817766e+00,
          2.79212091e-02, -2.79219840e-02 ]
      - [ -4.52451468e-01, 5.11661470e-02, 1.71168602e+00,
          5.93950823e-02, -1.16625547e+00, -2.76876956e-01,
          3.05916965e-01, -9.79050994e-01, 3.07616711e-01,
          -1.22217250e+00, 1.02089131e+00, 1.44834185e+00,
          -7.84372509e-01, 1.80320386e-02, 4.16097581e-01,
          -4.57963884e-01, 1.36979580e+00, -2.11626625e+00,
          1.55467761e+00, -8.08206797e-01, -2.09546256e+00,
          -1.42985117e+00, 3.45459294e+00, 7.07219839e-02,
          -1.66400656e-01, -1.64123321e+00, -1.84441769e+00,
          1.09794712e+00, -1.68089676e+00, 2.42736697e+00,
          -1.72239870e-01, 1.72241181e-01 ]
      - [ -7.05713093e-01, 3.18311155e-02, 6.88582838e-01,
          2.67369360e-01, -1.99428797e-01, -1.64634749e-01,
          2.76952833e-01, -3.20025265e-01, -5.98589666e-02,
          -6.23227537e-01, 6.38569951e-01, 2.16150701e-01,
          -7.05713093e-01, 1.90301202e-02, 2.83622086e-01,
          3.56492460e-01, 2.82070190e-01, -4.07135963e-01,
          1.71634331e-01, -4.65684459e-02, -1.67071402e+00,
          -7.37001121e-01, 1.88772774e+00, 5.19987345e-01,
          1.24714553e-01, -7.84618437e-01, -1.03794563e+00,
          9.12879884e-01, -1.36976945e+00, 1.49483514e+00,
          1.27660528e-01, -1.27660602e-01 ]
      - [ -2.31157407e-01, 4.55976576e-02, 4.03069824e-01,
          -3.22274446e-01, -7.16791153e-02, 5.23070812e-01,
          -1.99654788e-01, -1.26431063e-01, -3.93330641e-02,
          -3.64918500e-01, 5.54604590e-01, 2.49370679e-01,
          -5.48186362e-01, -7.69264027e-02, 2.32471421e-01,
          -2.76238117e-02, -1.04764387e-01, 1.25305876e-01,
          3.99723709e-01, -4.20265198e-01, -8.90355945e-01,
          1.26823500e-01, 9.90490973e-01, -2.26958707e-01,
          8.18894207e-01, -1.43503416e+00, 2.65831947e-01,
          -2.45290488e-01, -1.02936435e+00, 1.00882280e+00,
          5.13102055e-01, -5.13102055e-01 ]
      - [ 2.56192708e+00, 5.71823478e-01, -3.05357862e+00,
          5.54810345e-01, 1.69466960e+00, 6.35502577e-01,
          -2.50038791e+00, 6.77236676e-01, 2.62770683e-01,
          -1.28258610e+00, 2.55830669e+00, -3.14196616e-01,
          2.25522891e-01, -4.15428996e-01, -1.30652475e+00,
          -8.69867921e-01, 6.34983540e-01, 5.07018983e-01,
          1.22429502e+00, -2.36629987e+00, 4.74488878e+00,
          -4.90690857e-01, -4.30218601e+00, 4.79800403e-02,
          4.88586712e+00, -3.00264096e+00, 5.46392250e+00,
          -4.32191944e+00, -1.20972240e+00, 6.77169636e-02,
          -5.89163542e-01, 5.89164555e-01 ]
      - [ -6.26239702e-02, 7.26121962e-01, 3.44881117e-01,
          1.15290381e-01, -3.23264509e-01, 1.43406272e+00,
          -2.45613351e-01, -6.57073379e-01, -2.21198156e-01,
          -1.04229033e+00, -2.29908824e-01, 3.38244617e-01,
          -7.73280978e-01, -3.48359376e-01, 6.42660022e-01,
          3.02352130e-01, 1.12366951e+00, 2.08111212e-01,
          -1.15515268e+00, -1.76628262e-01, -1.38036740e+00,
          7.69534647e-01, 5.12018859e-01, 9.88137498e-02, 1.44388187e+00,
          -1.94589424e+00, 1.77429628e+00, -4.42515194e-01,
          -2.38512874e+00, 1.05334795e+00, -8.37498158e-02,
          8.37500244e-02 ]
      - [ 3.03706884e+00, 3.21709633e+00, -4.16173506e+00,
          4.62498069e-02, -6.56904519e-01, 3.07070374e-01,
          2.82084525e-01, 4.29345489e-01, -5.25844753e-01,
          -1.28240871e+00, 1.06593871e+00, 1.91633150e-01,
          1.27563155e+00, -2.59276152e+00, 3.39705408e-01,
          -9.72169280e-01, 2.13868093e+00, 3.61596256e-01,
          -5.50680697e-01, -1.94959342e+00, 3.12995028e+00,
          -3.51003259e-01, -2.47400665e+00, -3.04943174e-01,
          3.43790817e+00, 3.21557283e-01, 5.90433264e+00,
          -3.40405536e+00, -3.12538290e+00, 6.25108242e-01,
          3.72685075e-01, -3.72683823e-01 ]
      - [ 1.11571300e+00, 3.29821587e-01, 7.78168023e-01, 1.49073035e-01,
          -3.10095698e-02, 2.90411210e+00, -1.57305932e+00,
          1.12221134e+00, -4.44535017e-01, 3.12684506e-01,
          -1.64966643e+00, 8.86088848e-01, 3.69214565e-02,
          -3.53742719e+00, -2.81515539e-01, -1.17581740e-01,
          2.37277603e+00, 2.42225504e+00, -8.95428181e-01,
          -3.89960337e+00, 6.77090049e-01, 9.19085182e-03,
          -2.72607350e+00, 2.03979015e+00, 2.25257635e+00,
          -1.07437968e+00, 4.31863785e+00, 4.76392835e-01,
          -3.63235569e+00, -1.16267490e+00, -5.92878228e-03,
          5.93087357e-03 ]
      - [ 9.20624614e-01, 1.22928655e+00, -4.99377012e-01,
          -1.56090510e+00, 1.07044831e-01, 1.01236284e+00,
          -1.04753184e+00, 1.03063810e+00, -2.72850484e-01,
          -4.17480588e-01, 1.88434012e-02, 7.00782001e-01,
          5.97598433e-01, 5.67939840e-02, -1.88317880e-01,
          -1.68751180e+00, 8.96291882e-02, 1.10251367e+00,
          2.92939767e-02, -1.22143734e+00, 1.35241723e+00,
          1.88096237e+00, -1.71638334e+00, -1.51699722e+00,
          2.64318943e-01, -2.42831898e+00, 3.26931906e+00,
          -2.07717586e+00, -3.59389186e-02, -1.15620422e+00,
          -4.33805764e-01, 4.33806539e-01 ]
      - [ 8.99769843e-01, 1.33038175e+00, -2.30212450e+00,
          -1.37079644e+00, 2.19599962e-01, 1.66890073e+00,
          -2.10352850e+00, 5.55180728e-01, 8.20716918e-01,
          1.61833334e+00, -1.32660758e+00, 7.46283412e-01,
          1.00961399e+00, -2.50759983e+00, 1.43314791e+00,
          -6.91271842e-01, -1.44276893e+00, 3.40153128e-01,
          1.85872614e+00, -7.56109655e-01, 2.94970036e+00,
          2.11001539e+00, -4.29911280e+00, -7.60604978e-01,
          5.50790846e-01, -8.46377075e-01, 4.11865187e+00,
          -5.22126818e+00, 9.41064775e-01, 1.61551967e-01,
          -1.42901704e-01, 1.42903343e-01 ]
      - [ 1.24369240e+00, -3.82316262e-01, -1.78451514e+00,
          5.02035201e-01, -8.09740484e-01, 7.75087535e-01,
          -6.95223987e-01, -7.79846787e-01, -7.24387646e-01,
          1.14031911e+00, -1.61771774e-01, -7.69476712e-01,
          5.60371041e-01, 9.16706398e-02, 1.40274191e+00, 3.91360879e-01,
          -4.21103686e-01, -1.50972390e+00, -5.15316844e-01,
          2.44614434e+00, 2.69934982e-01, 1.62476075e+00,
          -1.23876905e+00, -6.55927479e-01, 2.24836898e+00,
          1.50750136e+00, 8.26722980e-01, -2.75755048e+00,
          1.06797314e+00, 8.62854481e-01, 1.05841100e+00,
          -1.05841148e+00 ]
      - [ 1.09013104e+00, 6.33786023e-01, -1.74400938e+00,
          -1.02356076e+00, 4.93478447e-01, 1.46165586e+00,
          -6.86517775e-01, -4.00298178e-01, 7.34667897e-01,
          7.79086471e-01, -6.88492000e-01, -3.69238198e-01,
          1.09149647e+00, -2.07147503e+00, 3.14353913e-01,
          3.84935588e-01, -1.04365230e+00, 8.68318439e-01,
          4.56024379e-01, -2.80689031e-01, 3.40977383e+00,
          8.03053200e-01, -2.80466533e+00, -1.40816188e+00,
          2.24823022e+00, 1.60504147e-01, 3.67905188e+00,
          -3.85438561e+00, 5.33775449e-01, -3.58440101e-01,
          8.65732491e-01, -8.65729153e-01 ]
      - [ 1.69598907e-01, 2.89646417e-01, -1.44836640e+00,
          -1.05165994e+00, -4.47074994e-02, 7.51341283e-01,
          -1.35397518e+00, -1.96106315e-01, -2.27970064e-01,
          1.03947389e+00, -3.80098879e-01, 1.04722073e-02,
          9.73652750e-02, 3.20723325e-01, 2.46533871e+00,
          -4.41075593e-01, -2.04078126e+00, -8.43447506e-01,
          4.41876680e-01, 2.44235206e+00, -5.71345678e-03,
          2.40118408e+00, -7.17101514e-01, -1.67836964e+00,
          9.97656211e-02, -1.26879585e+00, 1.16587877e+00,
          -4.05010748e+00, 1.22959197e+00, 1.65463638e+00,
          5.67409880e-02, -5.67422844e-02 ]
      - [ -7.18564074e-03, 1.57448232e-01, -1.13779104e+00,
          -4.31869537e-01, -3.74852002e-01, 2.19986111e-01,
          -1.42463005e+00, -1.88287720e-02, -4.85912681e-01,
          6.33406341e-01, 6.16177022e-01, 1.33639848e+00,
          -2.68699378e-01, -1.16540849e-01, 8.66988063e-01,
          4.35905755e-01, -1.41939807e+00, -1.59832525e+00,
          2.10006928e+00, 9.17653501e-01, -1.13664973e+00,
          8.94300044e-01, -1.07925606e+00, 1.32160616e+00,
          1.26488316e+00, -1.49179232e+00, -4.60324949e-03,
          -3.01311946e+00, -2.37746596e-01, 3.25546932e+00,
          4.49390821e-02, -4.49388698e-02 ]
      - [ 1.60253155e+00, 4.26723719e-01, -9.81725752e-01,
          9.20482039e-01, -6.41883612e-01, 1.24550140e+00,
          -6.68981850e-01, -5.42970181e-01, -5.12611032e-01,
          1.00257683e+00, -8.31259966e-01, -5.84816158e-01,
          5.29131889e-01, -4.54616010e-01, -3.81672919e-01,
          -1.26410261e-01, 1.96801090e+00, -6.08334303e-01,
          -9.26109970e-01, -4.33567315e-01, 9.77168500e-01,
          2.22018623e+00, -2.86364079e+00, -3.33714455e-01,
          1.89036262e+00, 1.78320909e+00, 2.63287210e+00,
          -1.27319539e+00, 5.64481974e-01, -1.92415977e+00,
          7.47836769e-01, -7.47838020e-01 ]
      - [ -1.02352671e-01, -3.31910878e-01, -1.35865808e+00,
          -5.25209725e-01, 1.67809868e+00, 5.81447303e-01,
          -5.44181764e-01, 8.00052702e-01, 1.43720460e+00,
          -1.29430366e+00, 4.34779301e-02, 3.59602779e-01,
          -2.17265502e-01, -7.12039351e-01, 5.71915448e-01,
          -3.85878086e-01, -2.31813169e+00, 2.51541686e+00,
          5.45981884e-01, -7.43267655e-01, 2.79568505e+00,
          -1.75680673e+00, -1.28744662e+00, 2.48567656e-01,
          1.36694595e-01, -2.58096051e+00, 1.82528269e+00,
          -1.62799656e+00, -7.86404073e-01, 5.89117885e-01,
          -1.21356058e+00, 1.21355963e+00 ]
      - [ -4.48883563e-01, -6.20923042e-01, -8.78568292e-01,
          -5.63371241e-01, 1.97763777e+00, 3.85912985e-01,
          -2.16353512e+00, 4.35936213e-01, 6.39408648e-01,
          2.21607044e-01, 7.03576207e-01, -4.73049700e-01,
          9.58399102e-03, 2.20299482e-01, 1.12613595e+00,
          -5.71767092e-01, -2.51174617e+00, 6.35951698e-01,
          1.09154177e+00, 7.84252465e-01, 2.17774677e+00, 2.06896022e-01,
          -1.21239161e+00, -1.17225146e+00, 6.88388944e-02,
          -2.49571490e+00, 1.29374397e+00, -3.16953802e+00,
          1.09089887e+00, 7.84895301e-01, -8.52438688e-01,
          8.52439046e-01 ]
      - [ -3.25501740e-01, -2.48923823e-01, -4.78657484e-01,
          -4.00798708e-01, 2.87167042e-01, 3.12693000e-01, 0.,
          -1.35315031e-01, 2.55259603e-01, 3.12693000e-01,
          8.29593688e-02, -1.16170563e-01, 2.10589170e-01,
          8.29593688e-02, 3.76507908e-01, -2.15461046e-01,
          -1.45388150e+00, 4.64545041e-01, 5.34741342e-01,
          4.54595447e-01, 4.27514046e-01, 4.59421426e-01,
          -1.91901997e-02, -8.67745340e-01, -1.45310432e-01,
          1.22483462e-01, 2.54343897e-02, -1.01477134e+00,
          8.61501098e-01, 1.27835691e-01, 7.08345354e-01,
          -7.08345234e-01 ]
      - [ 1.99495882e-01, 3.77214134e-01, -9.56255198e-01,
          -2.88720280e-01, 7.59598553e-01, 1.60392806e-01,
          -7.76214778e-01, 1.74216449e+00, 8.25607896e-01,
          -8.55508521e-02, -6.36076704e-02, 1.59755063e+00,
          -6.79174066e-01, -1.94411719e+00, -1.12088107e-01,
          -7.56296277e-01, -6.68265104e-01, 1.88594115e+00,
          2.27399993e+00, -3.49167514e+00, 1.10552847e+00,
          -1.49206126e+00, -1.90816593e+00, 2.29469824e+00,
          -4.60015625e-01, -1.82965970e+00, 1.49670172e+00,
          -2.79025882e-01, -1.88323438e+00, 6.65558577e-01,
          -7.64981210e-01, 7.64981747e-01 ]
      - [ -9.16660905e-01, -8.12208116e-01, -1.31731200e+00,
          -3.81173104e-01, 1.39150012e+00, -3.72543603e-01,
          1.09793735e+00, 2.16342974e+00, 3.17577314e+00,
          -1.16613388e+00, -1.26978934e+00, 9.41271961e-01,
          -8.00904512e-01, -8.45311701e-01, -2.30742022e-01,
          -6.57132208e-01, -3.42735434e+00, 4.28032255e+00,
          1.68112087e+00, -2.53409052e+00, 2.84970760e+00,
          -3.19619870e+00, -1.71990657e+00, 2.06639624e+00,
          -3.21612692e+00, -1.25027347e+00, -7.09912241e-01,
          1.56288218e+00, 3.63423079e-01, -1.21639216e+00,
          -1.71052873e+00, 1.71052969e+00 ]
      - [ 6.25624210e-02, -4.90486026e-02, -8.69422853e-01,
          -4.75722522e-01, -2.91354597e-01, 2.97054559e-01,
          -8.87196898e-01, 6.93762720e-01, -1.09934568e-01,
          -3.43191236e-01, 6.73485041e-01, 1.01380169e+00,
          8.23163241e-02, -1.03414488e+00, 8.79219115e-01,
          3.57814580e-01, -1.33163142e+00, -1.87734261e-01,
          1.23416090e+00, 2.85205096e-01, -2.56410539e-01,
          -1.12933028e+00, -2.03915611e-01, 1.58965671e+00,
          1.39091647e+00, -1.62379420e+00, 1.92137901e-02,
          -1.53857958e+00, -1.40495455e+00, 2.92432046e+00,
          -2.59848624e-01, 2.59849608e-01 ]
      - [ 1.36948466e+00, 4.01679611e+00, -4.67268288e-01,
          -1.39650881e+00, 3.37639719e-01, -1.13394506e-01,
          -6.95935309e-01, 3.54072213e-01, 2.61498224e-02,
          3.60484838e+00, -2.29979730e+00, 8.56843472e-01,
          -1.00382066e+00, -5.76241374e-01, -1.54334235e+00,
          -2.46952796e+00, 3.52250767e+00, -1.17620021e-01,
          2.18804240e+00, -5.59293509e+00, 7.29452789e-01,
          6.93200970e+00, -5.00634336e+00, -2.65512204e+00,
          -3.51323724e+00, 5.08583426e-01, 5.61052799e+00,
          -2.20564055e+00, 2.05093360e+00, -5.45582533e+00,
          4.95719224e-01, -4.95711088e-01 ]
      - [ -7.64086902e-01, 1.38124764e+00, 5.09123445e-01,
          7.78424263e-01, -8.75971913e-01, 5.90831280e-01,
          -1.19923449e+00, -6.65590882e-01, -9.67551291e-01,
          3.98225516e-01, 5.99285901e-01, -4.18217152e-01,
          -8.54649246e-01, 1.83158666e-01, 9.15793300e-01,
          3.89212132e-01, 1.90470850e+00, -2.14996624e+00,
          -3.88256997e-01, 6.33514762e-01, -3.46225905e+00,
